%YAML:1.0
---
opencv_ml_svm:
   format: 3
   svmType: C_SVC
   kernel:
      type: LINEAR
   C: 2.6699999999999999
   term_criteria: { epsilon:1.1920928955078125e-07, iterations:1000 }
   var_count: 64
   class_count: 10
   class_labels: !!opencv-matrix
      rows: 10
      cols: 1
      dt: i
      data: [ 0, 1, 2, 3, 4, 5, 6, 7, 8, 9 ]
   sv_total: 45
   support_vectors:
      - [ -6.93460606e-05, 0.00013357932, 3.00328047e-05, 6.65168409e-05,
          -2.21838109e-05, 0., 0., 4.60442266e-07, 9.33047268e-05,
          0.000122206591, -0.000117844182, -1.93112828e-05,
          -1.91858617e-05, -3.48703725e-05, 1.98523139e-05,
          3.56577293e-05, -3.63752006e-05, -0.000119434044,
          -0.000113385882, -8.32571968e-05, 3.71321948e-05,
          6.08593473e-05, 7.66899175e-05, 0.00025440997, 0.000228195204,
          5.14542808e-05, -0.000107446423, -3.66694112e-05,
          6.45379914e-05, 6.14308592e-05, -2.74469858e-05,
          2.82432666e-05, -5.0181301e-05, -2.92024652e-05,
          -4.41316843e-05, -0.000109056724, 4.31599619e-05,
          7.31007531e-05, 6.88953587e-05, 6.02689943e-05,
          -7.08062871e-05, -3.098261e-05, 2.56410221e-05, 9.90912758e-06,
          3.83530205e-05, 0.000119549521, 3.50322043e-05, 2.63548663e-05,
          0.00025376043, 0.000178583927, 0.000103812934, 8.11159916e-05,
          -4.22123812e-05, -7.41068143e-05, 4.12225154e-06,
          -7.81363997e-06, -9.25510612e-05, -0.000101050035,
          9.83188147e-05, 9.93672711e-06, 1.47264618e-05,
          -1.91432446e-05, 2.62352187e-05, 1.49369671e-05 ]
      - [ 0.000116099684, 5.67089155e-05, 1.39995536e-05,
          -1.81914056e-05, -2.10514872e-06, -5.93341429e-05,
          1.74760462e-05, 4.08320084e-05, 2.30716487e-05, 9.44030908e-05,
          2.59619246e-05, -1.47124101e-05, -5.66697054e-05,
          -0.000142826568, -4.70744308e-05, 2.07489102e-05,
          -1.02397435e-05, -0.000188731035, -0.000105908286,
          -5.33306229e-05, -8.99070365e-05, -1.34106379e-08,
          8.45132308e-05, 8.43641537e-05, 0.000105556363,
          -4.10145985e-05, -7.93011495e-05, -6.8157533e-05,
          -4.25587059e-05, 2.73787246e-05, 4.35219408e-06,
          6.58643112e-05, -4.69266306e-05, -3.48474277e-05,
          1.84887085e-05, 2.62887497e-05, 4.9832528e-05, 9.51274342e-05,
          -6.08782648e-05, 4.64368577e-06, -4.96848115e-05,
          -0.000120530487, -1.11046847e-05, 7.03196201e-05,
          7.37067749e-05, 7.59591567e-05, 6.09446615e-05,
          -0.000109883113, 0.000139312004, 0.000126593921, 8.9599147e-05,
          -2.64906812e-05, -1.83776247e-05, -0.000128479631,
          -5.13659288e-05, -8.72983674e-06, 0.000135580689,
          2.4868863e-05, -1.34138936e-05, 2.28847821e-05,
          -6.45399195e-05, -2.31932313e-06, -1.19226479e-06,
          4.43132703e-05 ]
      - [ 5.94270205e-05, 4.3279575e-05, -4.07837906e-05,
          -2.10005492e-05, 2.51058555e-06, -1.44071246e-05,
          2.36544935e-07, -2.00204659e-06, 7.90466947e-05,
          9.03660984e-05, 8.21652918e-07, -3.6053083e-05,
          -6.61248559e-05, -9.49479872e-05, -6.69482833e-05,
          -3.32974992e-06, 9.43123232e-05, -8.22784568e-05,
          -9.28630616e-05, -7.9254889e-05, -7.11608809e-05,
          2.9946752e-05, 3.42715903e-05, 6.38121637e-05, 0.000134246991,
          8.5716485e-05, -4.12534828e-05, -0.000112979833,
          -4.94338747e-05, -1.49301723e-05, -1.50861706e-06,
          0.000115754039, -1.12721682e-06, -7.3745985e-05,
          -3.4386514e-05, 1.61444405e-05, 4.53267567e-05, 7.90870035e-05,
          -2.03779036e-05, -2.09852624e-05, -8.5811218e-05,
          -3.64846965e-05, 1.44086071e-05, -2.27491782e-05,
          3.94134004e-05, 7.94019506e-05, 0.000120388097, 2.65008057e-05,
          6.04045745e-05, 6.56966149e-05, 3.37147649e-05, 5.80121632e-05,
          3.79144294e-05, -1.96300207e-05, -6.82445971e-05,
          -3.01103573e-05, 1.72024957e-05, 1.85475328e-05,
          -1.52939901e-05, 7.67626843e-05, -1.72803702e-05,
          -4.80843955e-05, -2.96524031e-05, 3.33954522e-05 ]
      - [ 3.18749298e-05, 4.63004544e-05, 1.00899433e-05, 8.12277067e-05,
          -3.84826053e-05, -4.08605702e-05, -5.33201164e-05,
          -4.60878364e-05, 5.96193931e-05, 6.24052991e-05,
          3.02891203e-05, 1.12469615e-05, -1.45911838e-06, 3.0469555e-06,
          1.1995623e-05, 6.38644924e-05, -7.22719915e-06,
          -0.000111862049, -2.4768322e-05, -6.76991622e-05,
          3.03538727e-05, 5.74927835e-05, 1.97982881e-05, 9.35759163e-05,
          0.000122849902, 3.02108128e-05, -8.80115294e-06,
          -0.000123225793, 3.34983895e-07, -7.88208636e-05,
          1.73774879e-05, 6.24849272e-05, -6.77628123e-05,
          -0.000154136011, -4.80686831e-05, -7.91026469e-05,
          -1.42281997e-05, 7.19849995e-05, 0.000135767463,
          -1.13333763e-05, -0.000107266038, -4.52236782e-05,
          9.15830969e-05, 5.23179369e-05, 2.96903982e-05, 4.80010967e-05,
          0.000128151398, -1.43233274e-05, 0.000114955321,
          0.000180083807, 4.93833577e-05, 7.87701283e-05, 1.79685401e-06,
          -5.8823196e-05, -5.17931803e-05, 3.40215011e-05,
          2.79507858e-05, -7.84198564e-05, -5.9697868e-06,
          4.08558299e-05, -1.94460481e-05, -9.48840461e-05,
          -7.46457736e-05, 5.2811567e-05 ]
      - [ -4.69415863e-05, 1.18535154e-05, 5.25046707e-05,
          0.000101769176, 3.42148924e-05, -4.04104576e-05,
          -4.68513463e-06, -3.12112716e-05, 3.06434886e-05,
          6.62144375e-05, 3.70747548e-05, -9.21819549e-07,
          -1.30696162e-05, -3.97949516e-05, -5.79936386e-05,
          -0.000102511352, 3.10046671e-05, -0.000113483082,
          -4.40292497e-05, -6.17801052e-05, -6.92986287e-05,
          7.05194034e-05, 1.64251451e-05, 6.98452059e-05, 0.000121970326,
          5.86499045e-05, -4.86086064e-05, -9.34566269e-05,
          -5.02566327e-05, 3.40647675e-05, 7.50424661e-05,
          0.000124364233, 3.68160072e-05, 4.02760952e-06, 3.37428878e-06,
          -8.81157539e-05, -9.00920058e-05, -1.51207987e-05,
          5.86777242e-05, 6.59478901e-05, 7.07149229e-06,
          -5.45460098e-05, -8.76186605e-05, -8.3174622e-05,
          -4.70401392e-05, 5.51347875e-05, 0.000121792691, 5.9257527e-05,
          -9.91184606e-06, 0.000117160562, 7.02600519e-05,
          6.72683236e-05, -2.41342968e-05, -7.08754087e-05,
          -0.000116843948, -6.78215147e-05, 3.31678348e-05,
          -2.74782888e-05, 5.68973046e-05, 7.92072533e-05,
          -3.15244943e-05, -6.84365368e-05, -0.000103277169,
          -4.10537086e-06 ]
      - [ -0.000198013819, -7.5027252e-05, 7.04791673e-05, 0.0001599893,
          0.000113847775, 2.4077357e-05, -0.000102468162,
          -2.14874362e-05, 6.72038295e-05, 4.60036827e-05,
          -7.60380935e-05, -5.31698715e-05, 5.75937884e-05,
          4.27663363e-05, 1.5899866e-06, 3.69584523e-05, -3.04760943e-05,
          -5.61489287e-05, -5.21293587e-05, 7.14224952e-05,
          -7.59690056e-06, 9.98151809e-05, 2.89952714e-05,
          5.69782133e-05, 5.95514612e-05, 0.000134411457, 5.81248205e-05,
          -9.66690568e-05, -1.04471355e-05, 0.000137301991,
          3.24436805e-05, -4.44703692e-05, 4.92996405e-05,
          -1.78438622e-05, -0.000135566937, -0.000140470918,
          -0.00012425147, 0.000131465786, 0.000142225472, 0.000177237307,
          4.02202113e-06, -0.000170659798, 2.60307734e-05,
          -1.22307747e-05, 8.23067312e-05, 0.000109953733,
          0.000117038842, 8.83391695e-05, 0.000213392224, 0.000101145517,
          5.39623761e-05, -2.26670854e-05, 0.000106550709,
          -5.71588389e-05, -1.65221663e-05, 8.0858219e-05,
          4.30163709e-05, -1.51434979e-05, 1.72501568e-05,
          -0.000133764319, -1.14439672e-05, -3.78166224e-05,
          2.21488954e-05, 7.88629332e-05 ]
      - [ 0.00011601892, 4.62565076e-05, -4.82578162e-06, -1.8393217e-05,
          -8.79983272e-05, -2.33011106e-05, -1.47147148e-05,
          -1.59486751e-06, 8.44038805e-05, 2.29423331e-05,
          -3.00615793e-05, -9.33961346e-05, -2.74719368e-05,
          -3.13555975e-05, -1.35161908e-05, 8.48267082e-05,
          -1.16950159e-05, -0.000132368164, -6.79987643e-05,
          -4.50848747e-05, 2.10491762e-05, 6.8973015e-05, 6.23921442e-05,
          9.25238855e-05, 0.000165999038, -5.62932546e-05,
          -4.90113562e-05, -3.82723083e-05, 6.21414292e-05,
          4.08783308e-05, 2.29198959e-05, -2.18934565e-05,
          9.32559306e-06, -8.37965417e-05, -3.09874849e-05,
          -8.28519696e-05, -3.57062127e-05, 6.7663248e-05,
          9.64229257e-05, 2.78625394e-05, -6.14542805e-05,
          -1.36698782e-05, -4.57622045e-05, 1.36303497e-05,
          2.89992331e-05, -1.62836786e-05, 2.02343381e-05,
          -5.31988808e-05, 2.62994272e-05, 7.85926604e-05,
          1.34900702e-05, 7.95992746e-05, 9.0673675e-06, -1.98527177e-05,
          -7.33913039e-05, -6.83686958e-05, -7.64663782e-05,
          -9.60568941e-05, 1.20742043e-05, 0.000131231718, 5.6150373e-05,
          -8.92134949e-07, -8.17631826e-06, 4.043429e-05 ]
      - [ 0.000123572434, 8.77353814e-05, 7.77617388e-05,
          -6.67054701e-06, -5.65286355e-05, -0.000107708765,
          -0.000159105301, -4.2140502e-05, 3.07350674e-05,
          0.000125280028, -0.000130931352, -5.63147807e-07,
          8.80270818e-07, -2.53250164e-05, -0.000131501292,
          -0.000112590511, 2.60379202e-05, -0.000191041094,
          -7.1522365e-05, -2.79696178e-06, 2.26214179e-05, 6.3218562e-05,
          5.88557668e-05, 6.34262688e-05, 0.000118083633, 3.2514974e-05,
          -6.41664446e-05, -6.49084614e-05, 7.95645174e-05,
          1.27692756e-05, -8.3841529e-05, -2.1774069e-05,
          -4.29003157e-05, -0.000105843392, -0.000145235317,
          -8.32162186e-05, -2.40942118e-05, 0.000116185045,
          3.2279524e-05, 7.30362517e-05, -5.96469472e-05,
          -3.39093713e-05, -1.95488956e-05, -3.73906033e-07,
          3.77677898e-05, 1.42697509e-05, 5.76028942e-05, 1.29044884e-05,
          0.000178757284, 0.000128688567, 2.22170656e-05, 5.96221507e-05,
          2.75456987e-05, -4.40205222e-05, -0.000139236785,
          -6.62342354e-05, 7.16365976e-05, -2.61361711e-05,
          -3.36727644e-05, -2.55990813e-06, -8.49591233e-05,
          -6.79348304e-05, -2.70435285e-05, 4.0564235e-05 ]
      - [ 0.000105599371, 2.67111227e-05, -1.0845346e-05, 4.73446453e-05,
          -8.190892e-06, -4.57177921e-05, -5.73650104e-05,
          -0.000119384735, 0.000153855683, -5.38173372e-05,
          -3.97695294e-05, 9.85460974e-06, -0.000101583319,
          -5.44804898e-05, -8.33229278e-05, -1.19590277e-05,
          4.81390016e-05, -0.000106928703, -0.000112040245,
          -6.8155292e-05, -1.69537816e-05, 2.25226795e-05,
          5.23037852e-06, 4.99144626e-05, 0.00024573211, 9.55342912e-05,
          -9.03370528e-06, -9.69919056e-05, 1.24997159e-05,
          -3.65439919e-05, 8.35027313e-05, 0.000115907307,
          -5.3739117e-05, -8.04982847e-05, -3.32900672e-05,
          -0.000114721654, -7.09003871e-05, 6.82490499e-05,
          7.56583831e-05, 3.84373525e-05, -0.000112928799,
          4.17835799e-05, 6.09219096e-05, -6.28171256e-05,
          -4.35367256e-05, -2.14110719e-06, 7.83561482e-05,
          3.33956887e-05, 0.000113560956, 9.23065381e-05, 1.97195059e-05,
          0.000123217163, 2.90285843e-05, 1.14893228e-05,
          -7.13434565e-06, -8.50162178e-05, -0.000113124021,
          -7.72550993e-05, 9.45331776e-05, 0.000196488312,
          4.15402028e-05, -7.15139686e-05, -6.45224136e-05,
          -4.72929496e-05 ]
      - [ 0.000124903017, 0.000183118551, 5.47497693e-05,
          -2.15244108e-05, -7.90760823e-05, 5.28618366e-05,
          -1.29251357e-05, -6.32357433e-06, -2.21446826e-05,
          -4.54993533e-05, 0.000128748317, -9.00349623e-05,
          3.3918026e-05, -3.59787155e-05, -0.000113405687,
          0.000234735227, 3.44761975e-05, -0.00011615338,
          -6.20366336e-05, -0.000117372947, 9.613164e-05,
          -1.73551343e-05, -2.31491904e-05, -4.43273129e-05,
          -1.34953343e-05, -7.40502446e-06, 8.88211143e-05, 4.19762e-05,
          -0.000225926255, 9.16686247e-07, -8.75956175e-05,
          9.97497864e-06, -0.000253232894, -5.17994777e-05,
          0.000129379143, -3.89818961e-05, -1.25226006e-05,
          -5.84294903e-05, -8.419402e-05, 3.8505761e-05, 7.14497291e-05,
          3.94436938e-05, 6.73460704e-07, 2.55354871e-06,
          -2.34120416e-05, -8.14566229e-05, 1.24012274e-06,
          -0.000106738378, 0.000236612366, -0.000105580082,
          5.9339618e-05, -0.000111063513, -0.000128482527,
          -5.69715994e-05, -5.50182522e-05, 0.000125647101,
          0.000135454509, -0.000158332201, -7.73899228e-05,
          1.11178015e-05, -0.000138158211, -0.000173892695,
          -8.46814437e-05, 0.000108996115 ]
      - [ 7.23523626e-05, 3.93353948e-05, -6.58224526e-05,
          -0.000156759808, -6.90079614e-05, 1.39067779e-05,
          -5.71426244e-06, -3.45627882e-07, -4.27787336e-06,
          -3.31565825e-05, 9.67105152e-05, -6.80059093e-05,
          -9.47090011e-05, -9.10554227e-05, -9.28448426e-05,
          0.000145206664, 0.000130369604, 3.79226299e-06,
          -6.29464557e-06, -1.90430019e-05, -5.84871923e-05,
          -4.79675728e-05, -1.68200202e-07, 0., -9.31085924e-06,
          -1.01436635e-05, -8.65472521e-06, 5.81524728e-05,
          -7.41887925e-05, -0.000106340281, -6.17486658e-05,
          9.25592976e-05, 8.34646344e-05, -4.49437757e-05, 3.3883287e-05,
          -3.99283053e-05, -1.21240118e-05, -7.95004526e-05,
          -2.77507133e-05, 7.43139535e-05, 4.30171895e-05,
          1.93789601e-05, -2.46825875e-05, 1.47493995e-06,
          6.19277807e-06, -1.08820695e-05, -4.28539242e-05,
          1.19256501e-05, -8.6684704e-06, -8.42799127e-05,
          -3.83720508e-05, 4.8505367e-06, 5.9433245e-05, 8.49060161e-05,
          -1.51569493e-05, 2.47129265e-05, 9.47859953e-05,
          -0.000199801259, -3.54367403e-05, 0.000101863414,
          9.89662476e-06, -2.10254802e-06, -5.35360377e-05,
          -2.46504133e-05 ]
      - [ -2.35930129e-05, -2.00744744e-05, 3.91037283e-05,
          -7.84416407e-05, -6.58273057e-05, -8.01662318e-05,
          -0.000129185762, -0.000159631687, -0.000129275184,
          -5.42753005e-05, 0.000168504033, 2.66047732e-06,
          3.61598577e-05, 4.93575317e-05, 2.10821745e-05, 0.000188740858,
          5.77092978e-05, 3.56290548e-05, 0.000134946618, 2.50364537e-05,
          -1.07843198e-05, -0.000118052572, -4.82677133e-05,
          -8.71406373e-05, -5.76312814e-05, -5.03701231e-05,
          7.22496989e-05, -2.19835438e-05, -0.000245895877,
          -0.00023608531, -2.39206256e-05, 5.36680163e-05,
          -6.43293824e-05, -0.000152703389, -9.38491939e-05,
          -0.000150914741, -4.50665248e-05, -9.56076633e-07,
          4.44349826e-05, 0.000140955264, 0.0001117348, 1.2158951e-05,
          -2.19277354e-06, -6.82477639e-06, 2.50476296e-05,
          1.99603983e-05, 2.57464762e-05, -3.06992079e-05,
          6.31902512e-05, -0.000121675541, -9.02533939e-05,
          -6.16630859e-05, 7.53023824e-06, 9.09122828e-05, 5.9104128e-05,
          0.000119662458, -1.09719786e-05, -0.000203789197,
          -6.26836991e-05, 4.80161543e-05, -6.53787356e-05,
          -5.31849983e-05, -0.000156951573, 1.5923406e-05 ]
      - [ -3.62734172e-05, 2.49778441e-05, 1.90402193e-06, -3.342747e-05,
          4.24566497e-06, 2.91019369e-05, -2.0466654e-05,
          -1.48924028e-05, -7.63784992e-05, -2.43117647e-05,
          6.07894654e-05, 1.7513099e-05, 3.76852986e-05, 4.7232701e-05,
          -0.00012749368, -4.18187228e-05, 0.000106444939,
          7.71104751e-05, -0.000148230713, 1.50223204e-05,
          -9.01224394e-06, -3.31573319e-05, -3.81715217e-05,
          -5.39425264e-06, 1.53734303e-09, 9.960753e-07, 4.72248721e-05,
          -0.000157036731, -3.55112497e-05, -7.20874159e-05,
          9.24727374e-06, 7.06276987e-05, 7.01894605e-05, 2.83463601e-06,
          1.913296e-05, -3.86949068e-05, -8.83029279e-05,
          -5.61967681e-05, -5.42952039e-05, 0.000147424318,
          6.8330286e-05, -2.89186537e-05, -0.000115392562,
          -9.1102338e-05, -1.68871829e-05, 2.52989435e-06,
          -1.55638481e-05, 4.24930622e-05, -4.35960355e-05,
          -9.99480617e-05, -2.63393008e-06, -5.58180145e-05,
          -5.03279944e-06, -1.8433786e-05, -2.15071195e-05,
          1.94979257e-05, 0.000112252208, -9.47703447e-05,
          -7.93924555e-05, 3.88189474e-05, -3.70573871e-05,
          -1.09523471e-05, 1.35877826e-05, -8.26917531e-05 ]
      - [ -9.67391388e-05, -9.16446952e-05, 0.00019078092,
          1.72285309e-05, 3.66950553e-05, 4.95381073e-06,
          -7.82970346e-06, -7.91199909e-06, -1.01589731e-05,
          -8.54715836e-06, 0.000127579522, 1.25605702e-05,
          1.30613562e-05, 1.92181142e-05, 1.96603323e-05, 0.000135040391,
          1.96093824e-05, -5.20846006e-05, 1.29784803e-05,
          6.10832794e-05, 4.07054467e-05, -5.54867838e-05,
          -1.01414289e-05, -4.51082378e-05, -4.84342927e-05,
          -1.555989e-05, 2.15646396e-05, 5.23113631e-05, 2.19462854e-05,
          -0.000191776009, 1.35057298e-05, 0.000106632258,
          -2.4697034e-05, -6.11931364e-06, 2.47814442e-05,
          -4.2276657e-05, -4.06451145e-05, -0.000123204212,
          -0.000105786705, 0.00020430221, 0.000190530787,
          -0.000185378143, -1.29347718e-05, -3.5689784e-06,
          1.52354878e-05, 8.92390744e-06, 1.65524034e-05, 2.47570733e-05,
          6.67222994e-05, -4.18780037e-05, -2.13476633e-05,
          -3.50794949e-07, -4.39751202e-05, 4.6866895e-05,
          -2.58588316e-05, 0.000121859579, 0.000160462994,
          -0.000124577404, -0.000148368359, -9.85072911e-05,
          -3.54965996e-05, 6.32468145e-05, -1.82935128e-05,
          -3.38314931e-05 ]
      - [ 0.00022878754, 2.15933392e-06, -1.40349484e-05,
          -0.000219664231, -0.00014133846, 1.13448441e-05,
          3.65554865e-06, 0., -5.21715956e-05, -8.08805707e-05,
          2.36319283e-05, -0.000213042251, -0.000144900696,
          -2.31920512e-05, -3.92741422e-05, 0.000273791666,
          -7.38307281e-05, -4.15186842e-05, 0.000136266593,
          -2.58071741e-05, -2.96386897e-05, 2.09300808e-07, 0., 0.,
          -3.74094839e-06, -1.3320534e-05, 1.65241599e-05,
          1.53406181e-05, 7.97970206e-05, -3.07767004e-05,
          -0.000145543716, 9.08722086e-06, -7.98623205e-06,
          -5.84156805e-05, 1.53099572e-05, -0.000136786301,
          -9.66177104e-05, -3.09446732e-05, 6.19508646e-05,
          9.49031237e-05, 0.00010796167, 3.57842728e-05, -3.02381886e-06,
          9.68635777e-06, -3.85883723e-05, -0.000131319204,
          -7.68018144e-05, -5.91685312e-05, -1.65184683e-05,
          -2.51567144e-05, -0.000133743801, 3.70010355e-07,
          1.55926537e-05, 7.6708915e-05, 1.63080458e-05, -7.54169305e-05,
          -6.77582793e-05, -0.000152001012, -4.11532637e-05,
          9.42290644e-05, 0.000111253234, -2.28412464e-05,
          8.02407976e-06, 3.3842065e-05 ]
      - [ 0.000178731105, 4.38906609e-05, -2.82586534e-05,
          -0.000199238944, -5.21444672e-05, 4.05237879e-05,
          -4.40809672e-05, -6.91990281e-05, -3.27738744e-05,
          -6.96489878e-05, 9.61652622e-05, -6.43781605e-05,
          0.000102301245, 0.000110673864, -0.000159462841,
          5.85342023e-05, -2.29137149e-05, -3.35045879e-05,
          9.79026809e-05, 0.000112051966, 2.82179626e-05,
          -2.53798862e-05, -5.24065799e-05, -1.50276674e-05,
          -2.02032934e-05, -5.14544408e-05, 2.71223817e-05,
          -8.62305096e-05, 9.21625469e-05, -0.000111481619,
          -0.000107449509, -8.30443696e-06, -3.61540624e-05,
          -0.000126447849, -5.30293346e-06, -0.000265284965,
          -0.00024647711, -0.000183203883, -1.88879967e-05,
          0.000178517599, 0.000104520783, -8.84943292e-05,
          -0.000109461544, -4.67342979e-05, -3.95655261e-05,
          -3.64324442e-05, -7.86826131e-05, -2.5490961e-05,
          -2.32671073e-06, -6.85943087e-05, 5.29419558e-05,
          -2.57052875e-06, 4.47222774e-05, 0.000153219691,
          -0.000189945349, 5.21447555e-06, 0.000150839842,
          -0.000181771655, -0.000147176877, 3.60574559e-05,
          -0.000146590261, -3.03696597e-05, -0.000110347879,
          4.16894763e-05 ]
      - [ 7.16868317e-06, -4.18255222e-05, -1.68676324e-05,
          -9.07956855e-05, -9.11888346e-05, -2.49643472e-05,
          -8.12631624e-05, -3.73767034e-05, -0.000145694779,
          -0.000140393022, 0.000123793259, -3.93982918e-05,
          1.18143216e-05, 2.04357148e-05, -3.79674202e-05,
          0.000198757465, 2.92632267e-05, 4.11232286e-05, 1.45316635e-05,
          3.86723769e-07, -9.60742909e-06, -0.000107912478,
          -2.20257425e-05, -7.76944944e-06, -8.25726943e-07,
          -8.97320933e-06, 0.000119088843, -9.02710235e-05,
          -9.49211535e-05, -0.000269528216, -0.000156242706,
          0.000281993271, 3.98496049e-05, -5.7643927e-05,
          -8.61314111e-05, -0.00012794591, -0.000141864526,
          -0.000122835147, 1.11930649e-05, 0.000165841746,
          0.000123889607, 8.57007326e-05, -1.2354195e-05,
          -6.71055168e-05, -6.05539899e-05, -6.43639287e-05,
          -2.41972593e-05, 5.77483524e-06, -9.41226172e-05,
          -9.71121917e-05, -2.6036043e-05, -2.14108004e-05,
          4.23057645e-05, 0.000145315047, -1.52246321e-05,
          5.20922811e-07, -0.000132827015, -0.000201267219,
          -2.47365078e-05, 0.000167196122, 0.000137082563,
          -6.29192364e-05, -8.52242156e-05, -3.40323277e-05 ]
      - [ -0.000143025754, -0.000450518739, -0.000323902554,
          -0.000420954835, -0.000302555418, 0.000541530666,
          0.000162019496, 0.00013468627, -0.000175672118, 8.77848215e-05,
          -0.000233361177, -3.06060974e-05, -0.00021140615,
          -0.000398306933, 2.45619995e-05, -0.000180560732,
          0.000488311576, 0.000366311433, 0.000248766679, 0.000303166307,
          -0.000189742626, -0.000323322369, -6.28472335e-05,
          0.000154189911, 0.000506956421, 0.000564404821, 0.000127422172,
          1.08829754e-05, -2.23217212e-05, 0.000149474625,
          -3.11828044e-05, 0.000345028762, 0.000338285317,
          3.78201876e-05, -0.000237743734, 0.000363875995, 0.00011543349,
          0.000171764419, 0.000220198359, 0.000354595861, 0.000259588473,
          -2.92838376e-05, -0.000202903873, 0.000224770673,
          0.000294509897, 0.000413006055, 0.000324675202, 0.000823424431,
          -0.000280697277, -0.000325683039, -0.00023521074,
          0.00027157116, 0.000206532583, -7.89934638e-05,
          -0.000177435155, -0.000442716846, -0.000304812274,
          -0.000194045235, -5.42071139e-05, 6.99684097e-05,
          0.000108231121, 0.000389491353, -5.54187536e-05,
          8.73881982e-06 ]
      - [ -0.000113850001, -0.00014084141, -5.23920717e-05,
          0.000174260684, -7.38239687e-05, -1.31776198e-06,
          -6.34224998e-05, -8.18105036e-05, -0.00014319396,
          -2.02753436e-05, 5.42903617e-05, 0.000166631595,
          0.000210423459, 0.00024615461, 0.000172737651, 6.23907472e-05,
          -9.90924218e-06, 0.000113491922, 0.000153813264,
          0.000250714977, -3.37766869e-05, -2.57904071e-06,
          -8.12926592e-05, -7.03548722e-05, -2.78117168e-05,
          1.55302951e-05, -0.0002235594, -4.90377424e-05, 4.36153096e-05,
          -0.000159411138, -9.24935011e-06, -2.91641554e-05,
          -6.12092026e-06, -2.10728012e-05, -0.000191888088,
          -2.29347042e-05, 0.000124029088, 8.77663842e-05,
          0.000128323678, 2.50884568e-05, -1.68778624e-05,
          0.000153752204, -6.09029485e-06, 0.000180454721,
          0.000127254156, 0.00012098634, 6.24154127e-05, -9.97925417e-06,
          -5.31290607e-05, 1.76732119e-05, -4.12596019e-05,
          3.19691753e-05, 0.000104695609, 0.000179879207, 1.79441577e-06,
          7.7628556e-06, -0.000122071142, -0.000125924911,
          5.87736904e-05, -5.99122141e-05, 0.0001620556, -4.79651426e-05,
          -0.000220084316, -8.54521859e-05 ]
      - [ -0.000151864195, -4.73539076e-05, 2.33215851e-05,
          1.1771358e-05, 5.41128211e-05, 6.85767445e-05, 2.6033902e-05,
          -9.35295338e-06, -8.48577984e-05, 2.93795483e-06,
          0.000120696299, 5.57246531e-05, 8.20062123e-05, 6.4728607e-05,
          -0.000118593904, -0.000198370457, 0.000117880358,
          0.000157990304, 1.24546386e-05, 2.58000182e-05,
          -4.26427032e-05, 3.72258864e-06, -2.63679776e-05,
          1.7947521e-05, 6.89047301e-05, 7.35573121e-05, 6.91377136e-05,
          -3.82674734e-05, -9.51043476e-05, 1.50261922e-05,
          5.19339264e-05, 6.63298779e-05, 0.000192803374, 0.000128798216,
          6.79734512e-05, -2.01646126e-05, -7.63015996e-05,
          -9.50370886e-05, 4.04092534e-05, 0.000127471343,
          0.000176990841, -5.51724006e-05, -0.000186041318,
          -0.00019393515, -5.42822017e-05, 4.14917777e-05,
          3.52940951e-05, 0.000141643613, -0.000129426815,
          -8.87083588e-05, -9.22541294e-05, 6.38503698e-05,
          9.88100783e-06, -2.87161911e-05, 1.70007843e-06,
          -8.85156769e-05, -0.000147673927, 6.72611932e-05,
          0.000102894905, 8.62671441e-05, 3.99263845e-05, 8.64019385e-05,
          -2.14191205e-05, -0.000121370416 ]
      - [ -0.000253298436, -0.000100660131, -2.61199075e-05,
          0.000186253994, 3.31779811e-05, 9.56863951e-05, 6.50856891e-05,
          3.68323927e-05, -8.18003027e-05, -7.45346479e-05,
          -9.32668336e-05, 0.000156050271, 2.15388882e-05,
          0.000178045433, 0.000140626347, 7.74522268e-05, 7.57975504e-05,
          0.000109951958, 6.63220198e-05, 7.61824631e-05, -3.0963598e-05,
          1.36154522e-05, 6.65160314e-06, 4.97375731e-06,
          -4.18100353e-05, 8.62990491e-05, 2.20884231e-05,
          8.85306217e-05, -6.28117195e-05, 7.79417533e-05,
          5.28046221e-05, -3.33724201e-05, 0.000152609064,
          -1.11899972e-05, -9.21150495e-05, -2.32189614e-05,
          -2.25881886e-05, 6.14300079e-05, -3.21098196e-06,
          0.000168186976, 7.28061787e-05, -3.3643013e-05, -2.4392355e-05,
          -6.46007247e-05, 0.000102036254, 7.20643875e-05,
          5.74141195e-05, 6.53525276e-05, -1.40340971e-05,
          -8.69266587e-05, -6.81564343e-05, 6.64232502e-05,
          7.93482177e-05, 2.27525179e-05, 7.10953202e-07,
          -4.01297875e-05, -1.87137102e-05, -2.80597703e-07,
          -4.71176318e-05, -4.15314717e-05, -2.40760401e-05,
          9.1111624e-06, -2.1286789e-05, -6.29326241e-05 ]
      - [ 0.000219282898, -5.84181616e-05, -0.000205701566,
          6.10687785e-05, -4.64719415e-05, 0.000170702246,
          -1.21552221e-05, 2.6989359e-05, -5.41323288e-06,
          3.43808788e-05, 0.000141693119, -2.26555658e-05,
          -0.000166989514, -1.44705218e-05, 0.000172426298,
          0.000204701777, -0.00021644884, -2.99089788e-06,
          0.000251905061, -0.000231614264, -7.30038955e-05,
          0.000135611685, 0.000201540955, 0.000123947029, 3.48307585e-05,
          -4.69515289e-05, -0.000231586164, -3.11473086e-05,
          0.000342809391, 9.54353018e-05, 7.03590922e-05,
          -0.000167292528, 0.000191655912, 0.000179209179,
          6.41521256e-05, 1.83712182e-05, -0.00018840417, 0.000322667183,
          0.000187498197, 0.000126931249, 9.59309909e-05,
          -0.000110138644, -2.33987648e-05, -5.42372836e-05,
          -0.000188884878, -0.000117148724, 4.72184365e-05,
          -0.000103753751, -0.00011810525, 3.11043077e-05,
          -0.000328514579, 0.000335034099, 2.20557854e-06,
          -6.98135264e-05, 4.95629538e-05, 6.43279491e-05,
          -0.000401013182, -0.000301986845, -3.57106801e-05,
          0.000149598069, 0.000493407424, 0.000222751783, 0.000113447844,
          -0.000256040832 ]
      - [ -9.42430634e-05, 3.84949781e-05, -0.000112449954,
          5.90009404e-05, -5.80998749e-05, -0.000151497414,
          -0.000447044586, 0.000249357399, -2.10138496e-05,
          -0.00020372303, -0.000310290285, 0.000185901154,
          0.000228767283, -1.51726435e-05, -0.000459895324,
          -0.000473881664, -3.92685688e-05, 0.000301129417,
          0.000176406626, 0.000333774689, -0.000207382051,
          -9.06466157e-05, -8.52768571e-05, -0.000242792477,
          4.2677606e-05, 4.86239805e-05, 5.40680667e-05, 0.000337955134,
          0.000205456658, 0.000114870578, -7.08373045e-05,
          -3.56743913e-05, 0.000267100899, -7.09156229e-05,
          -0.000130961664, 0.000178871007, -0.000302945293,
          -0.000121739395, 6.67546337e-05, 0.000268392905,
          -6.40309154e-05, 2.91624547e-05, -9.9419005e-05,
          -8.7115528e-05, 0.000118440708, 2.12083578e-05, 0.000319622108,
          0.000459065574, -0.000180176212, -0.000318703096,
          -0.000278332591, 0.000152370543, 0.000358559802,
          0.000100573685, -0.0002433357, -0.000400309887, -0.00012201193,
          -2.34734634e-05, 3.9474915e-05, -0.000223455281,
          -7.69742037e-05, 2.53897833e-05, -9.58339515e-05,
          -0.000117337571 ]
      - [ -8.44416427e-05, -9.76806768e-05, -4.744135e-05,
          -1.42870722e-05, 2.01323328e-05, 6.3348125e-05,
          -3.90328423e-05, -4.12159097e-05, 4.01172474e-06,
          -9.4993964e-05, -7.40468749e-05, 7.0674083e-05, 6.64918989e-05,
          8.56942061e-05, 4.08780725e-05, -0.000101632882,
          2.44140501e-05, 6.21365398e-05, 6.63120445e-05, 0.000162995071,
          -3.61724851e-05, -6.93461916e-05, -1.7104765e-05,
          -5.02530238e-05, 4.0513587e-05, -1.25357274e-05,
          7.78146277e-05, 2.89342079e-05, -1.28618353e-06,
          -8.58988569e-05, 6.10120078e-05, 3.94231502e-05,
          9.45114516e-05, -1.62338401e-05, -8.33944141e-05,
          -6.92249841e-06, -8.99092265e-05, 2.97203551e-05,
          5.79775442e-05, -1.68025254e-05, 7.71505802e-05,
          -9.66186349e-07, -1.47949322e-05, -6.7733592e-05,
          -6.26367691e-05, -6.96631878e-06, 6.00762978e-05,
          0.000125920022, -0.000147922925, -2.17683555e-05,
          -0.000103707156, 3.88892477e-06, 0.000149843268,
          0.000109165558, 9.85802981e-05, -6.79298537e-05,
          -0.000210249069, -0.000120624536, 0.000147327126,
          0.000125585546, 2.1268781e-05, 3.56032033e-05, -6.22178632e-05,
          -9.30487804e-05 ]
      - [ -9.81520789e-05, 1.35091732e-05, 0.000130371147, 0.00011183662,
          8.07163524e-05, -6.99072625e-05, -6.92465837e-05,
          -0.000128228741, -0.000118633703, 8.70990552e-05,
          -7.5025273e-06, 0.000214225816, 0.000156393784, 0.00019859866,
          0.000126351559, -5.76685889e-05, -0.000132020592, 8.308611e-05,
          0.000104643608, 0.000139588374, 5.09836791e-05,
          -2.04597131e-06, -4.44051439e-05, -7.5360942e-05,
          -1.31406277e-05, -5.13495361e-05, -7.20794378e-06,
          -6.93036854e-05, -5.67264215e-05, -2.03640266e-05,
          7.43251658e-05, -9.44431449e-05, -0.00013094976,
          -0.000129678403, -0.000109446912, -5.59210857e-05,
          5.48911485e-05, 7.72606363e-05, 0.000165332473,
          -2.30131318e-05, -4.88472979e-05, -5.27897027e-05,
          -7.61966658e-06, 0.000130778571, 1.74822562e-05,
          5.23385643e-05, 8.33665836e-05, -4.60944539e-05,
          6.24034001e-05, 2.58513355e-05, 5.35649742e-05,
          -7.78939357e-05, -0.000127901367, -4.01839316e-05,
          0.000101369551, 3.59501973e-06, -9.28189256e-05,
          -5.13840459e-05, 4.56470989e-05, -0.000107124841,
          -3.59223122e-05, -6.36200275e-05, -0.000183848897,
          -0.000101823956 ]
      - [ -0.000163489094, 8.21499052e-05, 0.000171510983,
          0.000340264378, 0.000304593821, 4.89888989e-05,
          -0.000100621961, -0.000130085173, -0.000146345556,
          -2.21195642e-05, 0.000121947691, 0.00011584851, 0.000330593699,
          0.00012022478, 8.30490899e-06, -0.000267668802, 0.000137528885,
          -9.22359686e-05, -9.40032114e-05, -7.47210652e-05,
          2.53071285e-05, 0.000111073983, -2.88411811e-05,
          8.67625931e-05, 7.63530552e-05, 5.95826577e-06, 8.95068733e-05,
          -7.31254186e-05, 2.17953184e-05, 3.3947781e-05, 0.000250219018,
          2.39881301e-05, 4.24473619e-05, 0.000230479811,
          -8.50837459e-05, -0.000312771415, -0.000184435266,
          1.9917079e-05, -8.77604325e-05, 4.38567113e-05, 0.000328094844,
          0.000118796474, -8.40071662e-05, -0.000353146344,
          -0.000232675578, -0.000184082834, 2.53654653e-05,
          0.000194973734, -0.000178520175, 9.91220149e-05,
          -4.91576138e-05, -3.8885446e-05, -0.000181054085,
          -1.67874241e-05, 2.12720752e-05, -0.000101801917,
          -2.87739531e-05, 0.00010590547, -0.000136337752,
          -0.000106527754, -7.86597011e-05, 4.75649504e-05,
          -3.93457703e-05, -7.93184081e-05 ]
      - [ -0.000150278822, -9.12750693e-05, 3.21055522e-05,
          0.000123520906, 7.94971129e-05, 3.97410695e-05,
          -3.26826216e-06, 1.82776648e-06, -3.98703887e-05,
          4.10746179e-06, -9.82692582e-05, 0.00011641845, 8.78428909e-05,
          9.38372468e-05, 7.3164716e-05, 3.14587414e-05, -9.22468098e-05,
          2.90877906e-05, 8.1936043e-05, 6.97467767e-05, 7.12128458e-05,
          4.94941305e-05, -6.46249973e-05, -6.45322189e-06,
          -8.04942829e-05, -2.03258824e-05, 2.80097574e-05, 6.586778e-06,
          9.38993107e-05, 7.90094491e-05, 2.21990695e-06,
          -3.35683253e-05, 5.90492091e-05, 5.33531893e-05,
          -4.53141656e-05, -6.82573082e-05, 3.08949202e-05,
          -7.6301294e-06, 8.71231241e-05, 8.23440278e-05, 3.25904548e-05,
          -6.046415e-05, 1.76912508e-05, 2.73104597e-05, 3.53064897e-05,
          -6.36807158e-07, 3.68675355e-05, 5.09523161e-05,
          6.56459451e-05, -2.0421081e-05, 3.6852507e-05, -6.65285042e-05,
          -1.73348762e-05, -1.05402969e-05, 6.26184337e-05,
          5.99053201e-05, 4.26781844e-05, 3.02022418e-05, 1.01571977e-05,
          -0.00015073274, -1.768935e-05, 3.84461091e-05, 4.02982878e-05,
          -3.2492997e-05 ]
      - [ 0.000244961964, 0.000160226482, 0.000393789291, -6.2349478e-05,
          -2.75747916e-05, -1.87968672e-05, -3.00828142e-05,
          -7.47874265e-06, -3.90876194e-05, -6.68595458e-05,
          -0.000229513869, 0.000154948735, 3.47068963e-05,
          -0.000126392639, 0.000128442116, 0.000560093555,
          -0.000164116835, 0.000306137255, -7.15653223e-05,
          -1.05279855e-06, 0.000194931476, 0.000286849536,
          3.33591233e-05, -9.99680833e-06, 6.48131572e-06,
          -5.49489851e-05, -0.00016068737, 0.000311605021,
          0.000367629371, 1.23147793e-05, -5.14894236e-05,
          -0.000217528926, -0.000145802929, 0.000290834781,
          -0.000164775513, -0.000431583408, -5.08134053e-06,
          0.000146233739, 2.39943656e-05, 3.13302735e-05, 0.000247446093,
          5.26709155e-05, 0.000170956439, -0.000244955358,
          -0.000377876102, -0.000374369702, 0.000141688462,
          -0.000469859951, -4.56337912e-05, -0.000212627114,
          -0.000110289504, -0.000104019477, -1.71877837e-05,
          -7.36825023e-05, 0.000105983621, 0.000184396529,
          -0.000240086752, -0.000325041125, 4.13311936e-05,
          -0.000194804888, 6.33886375e-05, 0.000127230131, 0.0004179393,
          -0.000157428134 ]
      - [ -7.77256082e-06, 8.35242827e-05, 8.6644628e-05, 0.000132629313,
          -8.43110229e-07, -0.000277597312, -0.000205968332,
          -8.95566973e-06, -0.000115019371, -6.00066305e-05,
          0.000104751009, 0.000254073995, 0.000256434723,
          -5.53001119e-05, -9.55529758e-05, -2.7118127e-05,
          -0.000318756356, 1.38263767e-05, -4.71357489e-05,
          0.000277381507, 0.000345018547, 9.72267881e-05, 4.36293194e-05,
          -6.00837348e-06, -0.000115601586, -0.000444006291,
          -2.68911772e-05, 0.000163691235, 0.000192202744,
          7.17087605e-05, -9.6932803e-05, -0.000142741585,
          -9.89350592e-05, -0.000217807959, -6.74943294e-05,
          -0.000214742628, -9.150197e-05, -5.83333131e-05,
          3.89117376e-05, -5.6418663e-05, 7.10759923e-05,
          -2.99406802e-05, -2.46265772e-05, -3.48353046e-06,
          -0.000168027895, -6.00507592e-05, 0.000148674168,
          1.20601117e-05, 3.48065696e-05, 0.00012974166, 1.47331421e-05,
          -9.79576362e-05, -5.5432869e-05, 3.15433754e-05,
          2.68019794e-05, -2.01294679e-05, 2.64739483e-05,
          0.000164309473, -2.85271981e-05, -0.000230074453,
          -0.000269912824, 3.27790694e-05, 0.000172714936,
          7.48983148e-05 ]
      - [ -0.000279862812, 3.53731193e-05, 0.000134726506,
          0.000218088433, -1.86791713e-05, -2.63492111e-05,
          -0.000168170824, -6.377096e-05, -0.0001430103, -9.07339127e-05,
          -0.000176637725, 0.000146938866, 0.000233451065,
          0.000156253998, 7.24763813e-05, -4.05434657e-05,
          -6.86290659e-05, 0.000117059833, 0.000129724503,
          0.000185406403, -4.10667744e-05, -0.000119370889,
          0.000105547719, -5.69399781e-05, 6.74854255e-06,
          -3.67204775e-05, 0.000101811245, 1.09722414e-05, 3.7890044e-05,
          -0.000102424048, 0.000151856642, -3.80349557e-05,
          -0.000179500799, -2.91152464e-05, -7.06914871e-05,
          -0.000165126665, -7.98942056e-05, 2.4914747e-05, 0.00017224357,
          8.41998462e-06, 3.44692817e-05, 3.42135718e-05, 6.5855761e-06,
          4.44403922e-05, -0.000181342271, -0.000128268643,
          -1.50888072e-05, 1.79706258e-05, -0.00019580916,
          3.80931306e-06, 4.77979593e-05, -7.65766599e-05,
          -1.26203922e-05, -3.80305719e-05, 0.000293563789,
          4.75152092e-06, -0.000258276123, -0.00022167679, 0.00012316709,
          6.25476023e-05, 6.74403009e-06, 6.83230464e-05,
          -7.72786734e-06, -0.000275894505 ]
      - [ -5.7855701e-05, 5.15569482e-05, 8.38735741e-06,
          -1.83737734e-06, 2.18295809e-05, 3.84712366e-05,
          5.56467676e-05, 7.61417468e-05, -5.15170468e-05, 4.1528514e-05,
          5.86390779e-05, -7.32696572e-06, -1.39344811e-05,
          -1.60212567e-05, -0.000119254983, -0.000140178265,
          4.21959849e-05, 9.60982725e-05, -0.000115628871,
          -2.23098414e-05, -4.26348015e-05, 1.28507791e-05,
          -3.47402638e-05, 2.32266466e-05, 6.48594214e-05, 4.3305703e-05,
          0.000108122054, -8.2671213e-05, -4.80422386e-05,
          -1.99204824e-05, 5.45725779e-05, 6.24630557e-05, 0.00016869152,
          0.000102560945, 0.000119749595, 5.75857439e-06,
          -8.80417574e-05, -0.000112714821, -1.09618204e-05,
          5.13240375e-05, 0.000120734483, -7.47077729e-06,
          -0.000179382667, -0.000203146075, -6.43630992e-05,
          -2.02816773e-05, -2.26119864e-05, 0.000104869803,
          -5.95790334e-05, -0.000140067175, 5.64127986e-05,
          -1.0313358e-05, -2.86320228e-05, -7.44814897e-05,
          -9.91972338e-05, 7.06558649e-06, 3.44062028e-05, 8.2211518e-05,
          1.69210543e-05, 5.36775879e-05, 1.31098341e-05, 5.78958934e-05,
          0.000113657268, -1.90024384e-05 ]
      - [ -0.000332294789, -6.41824226e-05, 9.2333561e-05,
          3.83155275e-05, 5.33582497e-05, 0.000128224565, 0.000232311082,
          0.000173269495, -2.06156401e-05, -2.39160254e-05,
          -0.00030203053, 1.7741826e-05, 2.31398972e-05, 2.79185224e-05,
          1.37248198e-05, 4.38698953e-05, 1.03647735e-05, 0.00010253967,
          -0.0001310472, -5.12797851e-06, -3.62738319e-06,
          0.000118006079, -4.04164311e-05, -5.66315393e-05,
          -0.00025955218, -5.74719877e-07, 8.569278e-05, 0.000234872219,
          2.66278385e-05, 0.000103382197, 7.12063047e-05,
          -0.000116025156, 0.000209562029, 0.00020662896,
          -8.54829777e-05, -0.000156673734, -0.000114679729,
          -0.000182108372, -0.000119621815, 0.000173624954,
          0.00010000186, -0.000241712245, 3.41237319e-05,
          -0.000165021571, 7.00600731e-06, -5.70876218e-05,
          -2.45214833e-05, 4.24662903e-05, 6.25561588e-05,
          -0.000171345295, 5.83008932e-06, -9.43265768e-05,
          4.6301062e-05, 0.000135235314, -6.76908894e-05,
          -8.28093252e-05, 0.000182263699, 0.000127111474, -5.214251e-05,
          -0.000189343467, -0.000203836069, 4.41509728e-05,
          0.00010472093, 4.94137112e-06 ]
      - [ 0.000162542958, 0.000136605348, -5.50912991e-05,
          -0.000181776253, -0.00011997368, 7.024144e-05, 0.000100836864,
          7.02958641e-05, 7.19347663e-05, 8.30743284e-06,
          -0.000109221393, -0.000146290506, -0.000217367226,
          -0.000111814828, -6.70319059e-05, 0.00011066936,
          -2.81916618e-05, -0.000186007732, -0.000108777633,
          1.72429063e-05, -4.75554225e-05, 7.66516896e-05,
          7.74462969e-05, -7.41495069e-06, 1.75737259e-05,
          3.10156029e-05, -4.48111969e-05, 3.15637189e-05,
          0.000157268354, 0.000211515842, -6.35684191e-05,
          -3.08874187e-05, 0.000113025388, 0.000155832007,
          9.45252177e-05, -4.01129182e-06, -9.92830901e-05,
          5.3726435e-05, -3.28065398e-05, 4.86075332e-05,
          -2.82138099e-05, -3.51632734e-05, 1.34610855e-06,
          -0.000119060285, -6.13672601e-05, -0.000225430151,
          -5.6573117e-05, -0.000148111038, 6.03138506e-06,
          -0.000197796078, -0.000139018783, 4.45547121e-05,
          0.00010132842, 5.72397596e-07, -3.21590742e-05,
          -0.000112872651, -9.06009518e-05, -2.91346314e-05,
          -5.30204234e-05, 0.00015871755, 0.000192363601, 0.000156433365,
          0.000211129474, 4.08301275e-05 ]
      - [ 4.835449e-05, 0.000199266942, -6.57502169e-05, -0.00012880913,
          -9.49398673e-05, -4.13451016e-05, 4.1152045e-05,
          0.000224341929, 0.00011311315, -0.000114565963, -9.0507252e-05,
          -3.14108038e-05, -0.000170380459, -0.000237494489,
          -0.000333389849, -3.60617123e-05, -7.65150617e-05,
          -7.59769027e-05, 6.25613438e-06, 0.000114002098, 7.8412022e-06,
          -4.99655835e-05, 1.90845858e-05, -0.000214003332,
          -3.3411965e-05, 7.42032571e-05, 0.000145349826, 7.70029001e-05,
          0.000137149589, 0.000173370834, -0.000102990591,
          -0.000158023497, 0.000177481095, 1.34779266e-05,
          4.12295776e-05, 2.28891276e-05, -0.000269790646,
          -0.000178319839, -4.50323096e-05, 1.47990477e-07,
          -4.57171591e-05, -0.000116130956, -0.00013668841,
          -0.00031046872, -0.000186624471, -0.000268681964,
          1.27790581e-05, 3.38220416e-05, -5.98247207e-05,
          -0.000208373487, -9.39241581e-05, 2.25802451e-05,
          9.09200826e-05, 0.000134082977, -0.000377521908,
          -8.57977575e-05, 0.000186670528, 0.000125993683,
          1.34663578e-05, 7.4690819e-05, -0.000127622014, 0.000115993258,
          8.4548119e-05, 8.69181458e-05 ]
      - [ -5.29087483e-05, -3.35372679e-05, -0.000396804389,
          -0.000286139373, 1.90669361e-05, 0.000260648201, 0.00014677018,
          -4.73339896e-05, -9.70258116e-05, -0.000271293684,
          -0.000619135506, -0.000375451171, -0.00014277274,
          -4.92263716e-05, -9.34267518e-05, -0.0001706974,
          1.96304936e-05, 2.95242239e-06, -4.14279348e-05,
          0.000190814404, -0.000284732465, -4.19304524e-05,
          -8.74762773e-05, 0.000148451494, 0.000122326775,
          6.39251593e-05, 2.74078479e-06, 0.000278998312, 0.00014009187,
          0.000225913755, -0.000263906113, -6.78103606e-05,
          0.000186895792, 0.00013869199, -1.9565382e-06, 9.31081468e-06,
          -0.000436319271, -0.000403474463, -0.000351265393,
          -3.89265952e-05, 0.000124398852, 0.000143885307,
          -0.000157762712, -0.000506749842, -0.000688877655,
          -0.0004371471, -0.00026141986, -0.000110118453,
          -2.94383153e-05, -0.000413546804, 0.000156145892,
          0.00027095835, 0.000286020892, -8.44637398e-05,
          -0.000139248295, -0.000137764684, -0.000112143163,
          0.000233372484, 0.000200167546, 0.000498272711, 0.000249798904,
          0.000213233361, 0.00011475871, -4.84050906e-05 ]
      - [ -6.51525697e-05, -0.00011987266, -9.44088315e-05,
          0.000112735019, 3.33235694e-05, 5.46168303e-05, 2.59963781e-05,
          0.000113282957, -8.81168453e-05, -0.000118599753,
          -0.000147130108, 5.3790438e-05, 1.46474295e-05, 1.37412399e-05,
          3.63705476e-05, 0.000189946542, -0.000201591669,
          4.46604899e-05, 0.000120645542, 6.50349011e-06, 2.81650937e-05,
          -6.61112645e-05, -5.77539367e-07, 2.59982244e-05,
          -0.000141517463, -6.22186344e-05, 8.11951541e-05,
          0.000250301673, 7.14541529e-05, 8.945023e-05, -4.91615247e-05,
          -0.000122861398, -1.71058127e-05, 2.2848606e-05,
          -0.000137294832, -7.35413341e-05, 1.70571111e-05,
          0.000180950723, -3.34787801e-05, 2.08951642e-05,
          -0.000145753787, -4.11959809e-05, 0.000181874333,
          0.000190618375, 8.88030409e-05, -1.34821394e-05,
          1.48920517e-05, 4.64629375e-06, 9.57558659e-05, 5.29566314e-05,
          7.88395482e-06, -3.21177758e-05, 0.000112204638,
          0.000105187675, 7.1547227e-05, -4.7441983e-05, 6.85466875e-05,
          4.79693299e-05, -7.96369422e-05, -0.000139695811,
          -9.10549861e-05, -8.34811726e-05, 2.38733592e-05,
          0.000115338444 ]
      - [ 0.000138658579, 2.03043401e-05, -3.87163927e-05,
          -8.00457856e-05, -0.000102099708, 1.24026483e-05,
          3.74805531e-05, 3.50943519e-05, 7.42599741e-06,
          -6.39379723e-05, -4.91323372e-05, -4.28892599e-05,
          -6.39506616e-05, 1.61988355e-05, 9.62702034e-05,
          0.000167624443, -6.52836025e-05, -0.000106395222,
          0.000125901628, 2.02226547e-05, 9.16967474e-06, 4.38205498e-05,
          5.11956096e-05, -4.27525447e-05, -3.79579506e-05,
          -3.5543977e-05, -8.45704271e-05, 3.58725119e-05,
          7.35244248e-05, 0.000115331379, 2.58878226e-05,
          -0.000124042184, -8.59568318e-05, -5.37258275e-05,
          8.82865243e-06, 8.86171438e-06, 4.27508858e-05, 9.51703551e-05,
          1.93156629e-05, -2.40893405e-05, -5.10915525e-05,
          -5.55802253e-05, 0.000133471476, 0.000219413632, 3.1501153e-05,
          -6.16950929e-05, -3.97650037e-05, -0.000109317662,
          0.000120418772, 5.46330411e-05, -4.87488433e-05, 2.8845594e-05,
          1.63134864e-05, 3.48222638e-05, 6.37444537e-05, 2.51256515e-05,
          -3.27598573e-05, -6.52306699e-05, -1.79624351e-06,
          3.98564625e-05, 6.27369445e-05, 1.95600182e-06,
          -4.06043364e-06, -5.41404879e-05 ]
      - [ 0.000176603324, 5.33883576e-05, -8.3046194e-05, 1.79390227e-05,
          -0.000100970028, -0.000174817091, -8.4848296e-05,
          6.12645163e-05, 6.12836666e-05, -3.3338616e-05, -0.00013490612,
          -0.00021726577, 0.000132413887, 0.000150383901,
          -4.98150112e-05, 0.000143997633, -0.000340152066,
          -0.000360359583, 0.000166565907, 0.000280614127,
          0.000247370714, -2.09962309e-05, 9.99003751e-05, 0.00014198781,
          -0.000176797519, -0.00020846691, 3.07659247e-05,
          0.000345718116, 0.000114059651, 0.000294475351,
          -2.79263713e-05, -0.000264795264, -0.000188373713,
          -0.000305538037, -0.000239877147, -0.000111165376,
          -3.23536151e-05, -0.000210268321, -0.000180515082,
          -0.000228028526, -7.79559996e-05, 1.56956248e-05,
          0.000138779986, 0.000383101578, 4.0740757e-05, -6.43507883e-05,
          -8.69559808e-05, -0.00018696145, 0.000216573288,
          0.000236659835, 0.000155420697, 0.000109376859, 0.000265638315,
          8.67409763e-05, -5.95892161e-05, 0.000107851316,
          1.55395046e-05, -0.000124096201, 2.28085719e-05,
          -0.000195213986, -0.000187462632, -0.000324643741,
          0.000103676408, 0.000294640544 ]
      - [ 0.000144794278, 1.9322837e-05, -0.000108959845,
          -5.34929823e-05, -6.61951926e-05, -9.18865408e-06,
          -1.11624049e-05, -4.69531115e-05, 8.5686479e-05,
          -7.55754154e-05, -0.000111504916, 9.51303355e-06,
          -0.000135577953, -1.94443855e-05, 9.07509966e-05,
          0.000121389494, -0.00013180227, -3.62553619e-05,
          0.000199921866, -3.83911283e-05, 5.99965679e-05,
          -6.87589491e-05, 3.2881173e-05, -0.000148652602, 8.3694049e-06,
          -2.47533844e-05, 4.57486603e-05, 0.000118007083,
          1.48795016e-06, 5.00382157e-05, 1.74859524e-05,
          -5.07275654e-05, -3.60628546e-05, -7.40076721e-05,
          -0.000135474605, 9.05882098e-06, 8.45264094e-06,
          0.000109146167, 0.000108175314, -0.000171318417,
          -0.000101372731, 3.67825742e-05, 0.00018806594, 0.000188943319,
          -6.22633161e-05, -7.54891444e-05, -4.71213789e-05,
          -6.6229346e-05, 4.29682186e-05, 3.92351394e-05,
          -5.43517817e-05, 4.20894685e-06, 6.35795077e-05, 7.7081284e-05,
          0.000145860453, 4.86916906e-05, -0.000148335646,
          -0.000146244303, 0.000146961072, 6.69878718e-05,
          -1.67715261e-05, -4.74816261e-05, 7.40436872e-06,
          -5.21835864e-05 ]
      - [ 0.000174523855, 7.99721383e-05, -9.01313626e-07,
          -9.44856947e-05, -9.23360349e-05, -2.03073687e-05,
          -6.06090771e-06, 1.25349952e-05, 4.47386083e-05,
          -1.42024701e-05, 8.68060379e-05, -8.24233066e-05,
          -9.07556678e-05, -4.0087165e-05, -3.54573458e-05,
          3.09485449e-06, -3.89144152e-05, -9.5579504e-05,
          -1.25947336e-05, -2.76890514e-05, 2.0982925e-05, 2.0480009e-05,
          6.57466153e-05, 1.4193005e-05, 2.54220904e-05, -3.63082509e-05,
          -5.93072073e-05, -1.30140393e-06, 8.19602355e-05,
          1.81002742e-05, 3.59280202e-05, -2.73798196e-05,
          -4.40633703e-05, 1.52243792e-05, 8.49607895e-05,
          -1.5184075e-05, -4.35434595e-05, 1.81050618e-05,
          1.71388183e-05, -8.73545941e-05, 9.70355632e-06,
          3.50916634e-05, 8.15502244e-06, -2.45381852e-05,
          -3.64043299e-05, -4.14660426e-05, -1.62245487e-05,
          -8.28564953e-05, -4.20737633e-05, 1.40658431e-05,
          -3.31529227e-05, 8.00817725e-06, -1.29934679e-05,
          -1.52298289e-05, 1.01545402e-05, -3.65000888e-05,
          -7.41231124e-05, -8.57164196e-05, 1.39494468e-05,
          9.33211631e-05, 6.48059504e-05, 2.13514045e-06, 3.96055384e-06,
          1.31917386e-05 ]
      - [ 0.000348301983, 0.000338956539, -8.92466633e-05,
          -0.000253704056, -0.000181464551, -0.000105787884,
          -0.000106775246, -6.15073877e-05, 6.68338616e-05,
          8.69106661e-05, 0.000157760107, -8.52685262e-05,
          -2.01947914e-05, -5.36090156e-05, -0.000215528606,
          -0.000330713199, -0.00013191333, -8.87165224e-05,
          -3.46914999e-06, 2.59526405e-06, 7.17783696e-05,
          -1.58274961e-05, 0.000112802896, -0.000104086619,
          1.45419335e-05, -7.69867329e-05, -0.000132868241,
          5.5559547e-05, 9.51834663e-05, -0.000112490496,
          -8.36112595e-05, -4.34544745e-05, -5.45911716e-05,
          -9.04126355e-05, 0.000108315915, 8.25471143e-05,
          4.72988795e-05, -6.73778122e-05, -0.000251337158,
          -0.000144609337, 3.06451911e-05, 8.7949622e-05,
          -2.91282195e-05, -8.2897277e-05, -0.000112403708,
          -0.00010016279, -4.91035098e-06, -0.000115314921,
          -0.000165585137, 0.0001116657, -7.7548706e-05, -1.33116246e-05,
          5.6082954e-05, -1.36304334e-05, -0.000173380729,
          2.87286241e-07, 9.73888928e-06, -3.6519672e-05,
          -4.73533219e-05, 0.000100655314, 4.29669199e-05, 9.6763375e-05,
          -3.78518926e-05, 7.05632119e-05 ]
      - [ 0.000129886626, 0.00010728222, -0.000113800306,
          -7.97989342e-05, 1.24491487e-06, -3.98235243e-05,
          -1.534902e-05, -1.96337587e-05, 4.10033317e-05, 2.21985192e-05,
          9.11342067e-06, -2.65524741e-05, -5.78376312e-05,
          -1.06285115e-05, -2.89955169e-05, -8.76728809e-05,
          -4.35752845e-05, -2.78241587e-05, -5.65732989e-06,
          1.63102886e-05, 6.3241805e-06, -4.93455336e-05, 1.58115108e-05,
          -1.07055803e-05, 7.75916997e-05, 8.48922718e-06,
          -5.37784672e-06, -6.06476569e-05, 6.97172572e-06,
          -3.67857028e-05, 6.29403003e-05, 1.76471167e-05,
          -2.13030307e-05, -3.98341872e-05, 1.08540771e-05,
          -2.06891527e-05, -4.18836935e-05, -3.15189682e-05,
          1.03266784e-05, -0.000129873195, -4.11711117e-05,
          7.94059815e-05, 3.29509953e-06, -6.91314272e-05,
          -9.06526548e-05, -1.84974797e-05, -2.96419312e-05,
          -2.75749771e-05, -4.63107644e-05, 2.66702336e-05,
          -3.17887316e-05, 7.96349195e-05, -2.81051234e-05,
          3.72898285e-05, -7.46509386e-06, 2.58978434e-05,
          -0.000190977662, -0.000112546339, 0.000171162712,
          0.000165902078, 5.50347759e-05, -5.56869309e-05,
          -6.98733993e-06, -3.92344264e-05 ]
      - [ -4.3693839e-05, -4.43807858e-06, 1.42967074e-05,
          0.000164943835, 0.000105387284, -0.000109072658,
          -0.000236184133, -0.000142391393, -7.04215417e-05,
          -8.66360188e-06, 1.10214269e-05, 0.000153276997,
          0.000276222592, -3.00503416e-05, -0.000258018874,
          -0.000422093028, 6.18150589e-05, -2.45220581e-05,
          7.91269995e-05, 0.000129696826, 1.29532955e-05, -0.00012260022,
          -6.2028972e-05, -4.11899346e-05, -0.000108474036,
          -4.44621364e-05, 0.000227258279, -8.02406248e-06,
          -0.000196798079, -0.000217722729, -9.58267556e-05,
          6.22665975e-05, -0.000157834977, -8.74860052e-05,
          -0.000201190283, 2.20781549e-05, -0.000141628319,
          -2.06037112e-05, -0.000183257551, 0.000136392628,
          -6.46254121e-05, -6.52796152e-05, -7.58140086e-05,
          -0.000108099848, -5.48244134e-06, 0.000130242785,
          -3.84012055e-05, 0.000113418653, 2.23834322e-05, 5.90083e-05,
          6.5136046e-05, 0.000109526234, -9.36264987e-05, 0.000161620133,
          -6.47001616e-06, -0.000226990902, 0.000266336952,
          0.000136341027, 5.16716818e-06, -0.000208647645,
          -0.000226561038, -4.37338895e-05, -0.000140173317,
          6.42649902e-05 ]
      - [ -0.00057152065, -0.00026138578, -0.000107066138,
          -0.000185909666, 0.000322842854, 0.00050351501, 1.62360266e-05,
          -0.000448102743, -0.000175835215, 0.000454526948,
          0.000119320452, 0.000541505113, 0.000467327656,
          -6.46552144e-05, -0.000216476998, -0.000292376179,
          0.000294269237, 0.000485109864, 0.000337561709, 0.00030563795,
          -0.000175097914, -0.00102403283, -0.000967216503,
          -0.000506933546, -0.000453969784, 0.000173417677,
          0.000596053142, -5.33255161e-06, -0.00047042215,
          -0.000863151625, 0.000261507434, 0.000291955628,
          0.000597202103, 0.000504384399, 2.48532651e-05, 8.73497775e-05,
          5.12839433e-05, -9.40532773e-05, -1.86739981e-05,
          -0.000235647152, 0.000240209614, -0.000144643782,
          0.000443727971, 5.12496808e-05, 0.000142283636,
          -0.000188610982, 0.000354640681, 0.00102789199,
          -0.000181565309, 0.000428496685, -0.000110523557,
          -0.000110056928, 5.81050044e-05, -7.35596986e-05,
          0.000565211696, 0.000607496651, -4.04165912e-05,
          -5.09262281e-06, 0.000155546499, 0.000550112512,
          -0.000233604253, -0.000529564277, -0.000630412309,
          -0.000526796852 ]
      - [ -4.88596888e-05, -9.16626668e-05, -8.05626114e-05,
          -3.23872919e-05, 0.000172260596, 2.08048659e-05, 0.00011015738,
          -3.17931881e-05, -1.79614854e-05, 4.09484674e-05,
          -4.50570187e-05, 3.49673683e-05, -2.91706001e-05,
          0.000148861669, 0.000205174962, -4.52347413e-05,
          8.24988238e-05, 0.000133596608, -4.89710728e-05,
          -4.43905446e-05, -1.60699947e-05, -0.000169763312,
          -5.82383582e-05, -6.0077884e-05, 4.53366665e-05,
          6.02432301e-05, 0.000122005687, -4.91000901e-05,
          -0.000162863929, -6.97110081e-05, 4.74702028e-05,
          0.000173109976, 6.58090139e-05, 2.62776011e-05,
          -2.84875532e-05, 8.64103276e-06, 2.40703903e-05, 1.4526463e-05,
          3.89787056e-05, -3.57937606e-05, 4.60648189e-05,
          -2.1126034e-05, 0.000113943046, -7.94216903e-05,
          -0.000190697145, -6.78471133e-06, -4.07769003e-05,
          6.67117129e-05, -0.0001626265, 3.81412133e-06, -0.000153511282,
          7.40303876e-05, -2.22409562e-05, 2.19724716e-05, 0.00011994235,
          0.000135623966, -0.000251284015, -0.000137616109,
          0.000151918415, 0.000274018443, 7.22593541e-05, 3.1870306e-05,
          0.000110846668, -0.000245558214 ]
   uncompressed_sv_total: 605
   uncompressed_support_vectors:
      - [ 2602.18823, 7212.19043, 6182.88428, 0., 0., 0., 0., 0., 0.,
          2302.99854, 679.347046, 1377.42163, 571.063904, 1458.30933, 0.,
          93.3809433, 3113.07593, 197.678192, 0., 267.540649, 2361.11719,
          1005.39948, 931.268066, 3807.89795, 1468.49097, 168.344879, 0.,
          0., 1886.07141, 7216.19629, 2702.95581, 1715.66992, 0.,
          270.1185, 0., 1684.61792, 1687.74585, 2758.87842, 2770.99951,
          6096.68066, 1204.9303, 624.679138, 1990.42444, 915.38269,
          1473.63306, 700.021667, 1980.83801, 0., 1339.55298, 2057.9187,
          1776.21545, 4218.68213, 283.637085, 0., 764.607239, 2460.22095,
          1219.91675, 3512.83472, 5577.50342, 2427.37598, 2052.16675,
          82.29216, 0., 1246.11743 ]
      - [ 3440.29102, 4856.22656, 1683.95972, 1293.5542, 0., 0., 0., 0.,
          1572.68225, 617.427551, 209.618698, 0., 0., 59.4810905, 0.,
          3672.35718, 3799.13306, 12.7279224, 0., 156.518372, 0., 0.,
          610.175415, 2913.62012, 1518.19788, 98.4885788, 0., 0., 0.,
          3212.073, 4270.0625, 5297.8418, 1294.53711, 123.223373,
          325.419739, 0., 4080.78955, 3053.68359, 2475.42334, 6683.89746,
          1749.37048, 1027.19141, 794.637512, 0., 1420.72156, 405.842346,
          823.203491, 1101.76233, 3009.42285, 1428.88892, 747.753967,
          622.047424, 713.122681, 430.116272, 0., 1068.17517, 7565.48975,
          6686.50293, 1734.5249, 1544.51929, 2013.80957, 198.116135, 0.,
          1673.26343 ]
      - [ 3522.4895, 2647.55664, 1723.11279, 1327.92981, 0., 0., 0., 0.,
          622.009644, 2669.05298, 1597.16382, 159.380051, 0., 0., 0., 0.,
          898.684326, 0., 84.7230759, 0., 1145.90479, 620.994385,
          1121.52454, 2353.55347, 875.950562, 0., 0., 0., 1280.73242,
          2381.06763, 1842.68872, 3165.01294, 161.009323, 0., 0., 0.,
          2287.64404, 678.517334, 4055.98291, 2571.25635, 221.002258, 0.,
          471.076752, 826.8349, 106.075447, 711.163818, 2297.04712,
          1702.54272, 1029.96057, 897.036682, 99.3579407, 2537.91187,
          518.396057, 107.935165, 46.6146126, 1770.47485, 1984.37561,
          2894.0481, 1677.83728, 2022.99438, 594.053894, 0., 16.970562,
          2711.11987 ]
      - [ 4682.354, 1819.02209, 978.828308, 1043.31641, 0., 0., 0., 0.,
          5079.86963, 779.358704, 0., 80.2246857, 0., 0., 0., 1288.95349,
          1443.93127, 116.661903, 0., 0., 0., 753.048462, 1305.50342,
          3603.86841, 0., 0., 0., 0., 1198.43396, 1029.41772, 3210.65552,
          3470.89941, 1270.62341, 0., 244.584991, 1060.11938, 211.026062,
          830.128479, 1626.63806, 3371.0625, 1123.69519, 640.640564,
          456.004395, 323.55481, 0., 202.474686, 201.134018, 2686.95264,
          1689.14661, 2736.34106, 633.103455, 1468.28967, 49.0917511, 0.,
          15.9524841, 1033.75085, 3301.19214, 3231.14087, 1960.22437,
          1587.81689, 0., 0., 46.3249397, 0. ]
      - [ 4295.04248, 4472.61621, 3315.25024, 1437.80786, 0., 0., 0.,
          390.18457, 3318.89917, 2890.625, 1289.94263, 0., 0., 0.,
          267.089966, 191.905426, 2480.71997, 76.0263138, 0., 0.,
          618.852173, 2216.27271, 1454.80334, 1618.96875, 2958.03564,
          85.8021011, 0., 0., 2439.30957, 2554.677, 4381.14355, 2056.25,
          642.123047, 548.60553, 1027.56519, 2669.3728, 2466.62842,
          1279.59375, 3658.72656, 2938.44312, 440.857269, 1560.34424, 0.,
          1665.29272, 775.74353, 1509.70239, 2752.15869, 427.310181,
          652.701416, 0., 1314.10645, 1964.89551, 1500.82849, 14.422205,
          1641.58044, 2356.06445, 2470.25049, 2119.84229, 1990.3512,
          3032.76611, 1514.53711, 72.1803284, 1529.74121, 3427.68774 ]
      - [ 3812.38037, 2025.68201, 1097.68787, 2570.90039, 2732.16626,
          201.955444, 0., 0., 1809.32568, 1640.52844, 2061.79932,
          1121.19934, 2082.54932, 0., 372.615997, 189.016846, 1847.08301,
          5.88634968, 112.294258, 45.2769241, 2589.33691, 1135.95398,
          2434.5708, 2778.74048, 0., 1.41421354, 0., 36.0555115,
          3388.73535, 2552.42334, 2144.48877, 2648.61182, 256.632019, 0.,
          195.473785, 2816.74707, 2393.64526, 861.667175, 2485.09717,
          3459.97974, 424.949432, 871.613464, 732.0354, 953.51001,
          1086.71643, 2014.47888, 1587.82629, 1928.62378, 3253.08496,
          1757.7594, 2351.44287, 1744.73157, 1258.58093, 0., 0.,
          714.725769, 3248.15112, 3603.46899, 2033.89478, 4334.16992, 8.,
          0., 0., 0. ]
      - [ 1123.20386, 3275.96045, 1631.26855, 1731.09399, 1698.29199, 0.,
          0., 0., 0., 3030.01758, 362.505157, 1187.85718, 208.086517,
          679.615356, 464.605194, 0., 0., 130.084595, 196.796738,
          1336.00781, 533.158508, 703.045105, 1295.77905, 634.717285,
          1211.74756, 0., 0., 0., 2995.03247, 1894.95667, 1832.9856,
          2038.8241, 0., 0., 84.5340195, 718.401123, 3060.25391,
          3290.42114, 1424.27673, 1099.00317, 0., 333.82962, 844.757202,
          576.003479, 659.146423, 2635.11768, 1522.88904, 0., 1178.36633,
          765.398926, 1369.92651, 2776.88354, 429.287628, 0., 0., 0.,
          1529.79639, 1435.16394, 3501.40039, 3322.854, 38., 0.,
          102.459747, 0. ]
      - [ 3433.05273, 9718.99414, 1842.34924, 0., 0., 0., 0., 0.,
          876.641296, 4750.49805, 846.178467, 0., 154.019485, 0., 0.,
          61.6116867, 979.177551, 0., 0., 0., 1492.72803, 670.90387,
          1240.099, 2570.36523, 2748.30005, 594.251099, 0., 173.29744,
          3114.96411, 1673.09375, 2661.52832, 5960.06689, 0., 0., 0.,
          1653.99597, 892.26532, 3949.01001, 3561.26807, 2571.23413,
          2213.18091, 7.07106781, 406.821991, 1440.53137, 673.832336,
          2055.6665, 1571.74927, 1210.18152, 1650.4386, 2660.54785,
          2218.89355, 2263.94653, 0., 0., 0., 53.3666573, 3911.41479,
          4772.75244, 2381.34839, 3236.77441, 0., 0., 0., 660.110413 ]
      - [ 5310.37158, 2257.73706, 5049.80273, 4818.14746, 82.8613281, 0.,
          46.0651703, 0., 893.985474, 1417.41602, 2897.80859, 222.80484,
          924.592163, 0., 1043.83093, 0., 2837.89404, 5.65685415, 0., 0.,
          256.456635, 4994.84961, 1348.36865, 3312.1001, 524.1698, 0.,
          0., 802.261108, 5147.6123, 4647.87646, 4670.83545, 2601.80347,
          981.053467, 1602.16577, 3116.23242, 3824.5249, 3057.57397,
          2369.66333, 2980.1228, 2638.82153, 3702.23535, 1776.41272,
          2036.04968, 2316.77783, 3927.94214, 192.421417, 0., 0.,
          5308.27295, 1576.51111, 1645.50513, 2037.83545, 3614.96558,
          362.215393, 29.6984844, 1916.3728, 3744.5249, 6457.41992,
          2880.44897, 5021.521, 2706.25928, 0., 0., 310.177368 ]
      - [ 2355.39331, 6056.90039, 4729.66504, 0., 0., 0., 0., 0.,
          2001.17896, 1231.70667, 2012.98535, 0., 0., 216.633331, 0., 0.,
          2067.69604, 42.4264069, 117.200684, 2272.84033, 876.524963,
          535.111206, 222.733017, 672.180054, 2983.82544, 1102.30286,
          349.322205, 309.987549, 2565.65747, 2694.06299, 3542.17847,
          2360.82593, 0., 534.197144, 1584.25305, 1817.00403, 822.709534,
          1430.35059, 2365.64941, 4249.12549, 1095.26221, 1253.76086,
          1737.91431, 1622.00928, 809.499817, 430.376587, 521.376282,
          1900.55444, 2185.27173, 1543.36133, 2945.22803, 3056.3313, 0.,
          0., 597.467163, 1750.02466, 1636.24597, 3510.08374, 4375.625,
          4055.77563, 0., 0., 0., 0. ]
      - [ 3465.01367, 1345.95935, 6609.79443, 1705.98438, 0., 0., 0.,
          112.285347, 1523.91113, 1742.48206, 2587.43945, 0., 0., 0., 0.,
          0., 2438.47119, 1346.48718, 0., 0., 0., 0., 235.083817,
          1445.6637, 3844.10522, 1405.05298, 2335.81055, 420.46994,
          677.446167, 730.564697, 1723.92188, 2623.79443, 6., 0., 0.,
          1780.88745, 3475.92578, 1866.15088, 3872.62012, 1385.65894,
          226.22113, 379.230804, 218.549759, 2488.92358, 2583.20557,
          899.97583, 605.607117, 1407.12146, 986.928955, 4638.6416,
          269.183899, 0., 0., 0., 300.946808, 2194.40283, 2077.89209,
          2016.01892, 2650.46582, 1132.07764, 384.783051, 744.324158,
          830.753418, 1944.85461 ]
      - [ 2586.22827, 1351.20386, 3689.13965, 1118.90308, 0., 0., 0., 0.,
          282.446442, 0., 307.626404, 137.295303, 684.527344, 442.307434,
          1452.47168, 2306.53442, 8799.15137, 176.669052, 0., 0.,
          699.968567, 0., 1059.89844, 0., 5579.57275, 0., 0., 1713.65625,
          1413.18408, 1078.79602, 799.543884, 1198.63708, 1015.80615, 0.,
          0., 1783.93396, 1866.94971, 1099.27124, 4774.16748, 2532.19238,
          2258.83569, 3214.22876, 495.889099, 0., 743.462646, 384.096344,
          437.383728, 1470.25793, 1803.53491, 2663.13525, 3799.87329, 0.,
          33.3766403, 94.8261566, 260.863953, 1998.19275, 5932.10791,
          4088.22388, 1838.92419, 2779.23804, 479.416321, 0., 60.0333252,
          1504.8429 ]
      - [ 3133.55542, 2559.60645, 375.615387, 1163.328, 0., 0., 0., 0.,
          2636.04932, 1256.07861, 332.929413, 0., 0., 0., 0., 1018.05762,
          1435.23975, 320.31546, 0., 0., 681.916443, 914.049255, 0.,
          1290.38574, 1159.93591, 0., 0., 85.4400406, 1341.16187,
          775.074707, 1721.28711, 2276.99561, 1039.97876, 0., 34.9284973,
          0., 654.987488, 1823.96375, 1727.97522, 2214.88965, 656.002991,
          300.734985, 487.165283, 378.208923, 0., 0., 1235.83887,
          1075.22668, 1503.74243, 2734.67383, 613.098694, 533.810852, 0.,
          0., 5.65685415, 0., 3668.98584, 2872.21899, 1776.6106,
          738.075867, 0., 0., 0., 0. ]
      - [ 5623.80078, 4819.29004, 7297.29297, 2476.87939, 0., 0., 0.,
          18.4390888, 48.1040535, 1321.51868, 3082.49023, 1467.50012, 2.,
          0., 0., 0., 1875.39771, 0., 0., 2016.06409, 1213.21484,
          1787.05359, 897.587891, 549.102905, 1514.94507, 567.367249,
          135.951096, 865.555298, 3768.59961, 2574.82813, 8395.89648,
          3404.44263, 1473.36621, 385.253174, 792.315613, 677.043701,
          2818.13574, 2483.77002, 3026.23022, 8646.74121, 1789.9646,
          350.087982, 1353.79517, 1776.27893, 0., 0., 1518.56372,
          2179.68311, 0., 3113.06177, 2397.59497, 1987.88354, 0., 0.,
          103.391708, 1874.24097, 8570.5498, 1277.54846, 1618.30554,
          7214.74268, 304.146301, 0., 0., 0. ]
      - [ 6390.44434, 3977.40796, 1350.33655, 955.931396, 791.854797,
          1460.37122, 0., 1302.97925, 8053.58838, 0., 0., 0., 0., 0., 0.,
          400.510895, 699.611084, 9.89949512, 0., 1712.21826, 334.293274,
          789.227478, 0., 4641.28857, 616.116882, 0., 0., 0., 1937.24866,
          3967.84082, 4164.74902, 4679.93701, 3371.16919, 418.502106,
          1252.86365, 326.459808, 1178.09631, 2327.70166, 2268.90894,
          2652.25098, 3259.16406, 582.897461, 26.9072475, 0., 0., 0.,
          1887.14587, 2801.13403, 1437.63184, 2857.38159, 3819.71704, 0.,
          0., 33.6154709, 0., 0., 5337.00732, 4152.32813, 3376.74072,
          3840.62573, 0., 0., 0., 0. ]
      - [ 3670.45605, 4673.82422, 8024.28223, 1867.11877, 0., 0., 0.,
          157.835358, 1486.90332, 1707.77637, 4734.88428, 0., 0., 0., 0.,
          0., 1857.31201, 162.413055, 0., 0., 1776.94727, 3519.09839,
          1810.58838, 0., 0., 0., 0., 0., 4089.47388, 4723.33887,
          6234.03906, 1812.73389, 1857.69409, 707.517639, 471.425507,
          846.27533, 1496.73291, 3309.12769, 5580.01025, 5242.18359,
          1372.46191, 1568.00586, 1323.41626, 380.087891, 0., 645.479309,
          3069.92847, 2949.76001, 0., 3265.25586, 1343.89722, 3089.49487,
          4062.76123, 89.8109131, 11.3137083, 459.009796, 4027.62866,
          4621.16357, 3612.0835, 8101.94287, 91.0584183, 0., 0., 0. ]
      - [ 5351.32275, 9197.06055, 1409.02856, 648.063843, 0., 12.083046,
          0., 0., 0., 237.928558, 92.0977707, 0., 10., 0., 0., 0.,
          4603.42773, 14.764823, 0., 0., 270.682343, 568.330566, 0.,
          237.507889, 516.480408, 771.109131, 121.655251, 0., 2031.35229,
          6252.39551, 2774.66772, 3311.20361, 0., 0., 0., 0., 2052.9458,
          1489.39038, 8143.40088, 5404.89746, 172.908264, 593.97644,
          244.806046, 0., 873.791748, 0., 380.573242, 0., 0., 534.222778,
          1504.1698, 802.65387, 0., 0., 567.133789, 2911.71973,
          4524.72412, 3090.85742, 5926.29102, 3572.44458, 0., 0.,
          371.534821, 643.000793 ]
      - [ 2773.98096, 3864.20215, 3919.83887, 4018.34619, 0., 0., 0., 0.,
          0., 2224.83276, 1594.50562, 1478.63257, 0., 0., 2.82842708, 0.,
          1270.02673, 84.2721024, 196.62146, 1478.63855, 931.996765,
          1118.18579, 835.418457, 265.198029, 3160.94116, 515.321289,
          84.0595016, 0., 4357.84326, 3327.85254, 1939.66797, 4086.45142,
          201.717621, 0., 1873.78723, 1018.43591, 1350.95764, 2576.38159,
          1300.37585, 7233.19971, 316.950775, 108.452751, 0., 0.,
          609.066528, 1215.7561, 1351.26758, 919.535767, 1315.69543,
          1327.32007, 2195.69263, 0., 0., 0., 99.2208633, 4749.08691,
          2037.59985, 2786.28198, 2524.41528, 4057.69141, 7.07106781, 0.,
          0., 2368.96533 ]
      - [ 608.152954, 2848.71436, 8123.24658, 3329.03516, 0., 0., 0., 0.,
          156.894867, 1109.92285, 1143.77283, 200.132599, 0., 0.,
          1497.02332, 2799.69434, 3986.16577, 50.7740097, 0., 327.074921,
          2565.11548, 1282.25427, 884.182129, 285.236755, 1896.44873,
          4462.85449, 0., 0., 3800.53516, 6231.90625, 2131.24341,
          4011.95508, 0., 49.5782204, 0., 2017.97266, 3247.81689,
          5575.50293, 4110.17139, 1971.24976, 3108.83594, 1123.57739, 0.,
          0., 852.976074, 1463.14978, 591.797974, 32.3109894, 2237.93164,
          2052.80957, 833.57666, 1977.88135, 185.326736, 0., 198.010101,
          3895.74146, 2985.51416, 4951.20459, 5264.10693, 2726.62891,
          1920.31689, 1070.95435, 1007.90234, 1975.24988 ]
      - [ 2684.00122, 6257.97119, 5957.78711, 1871.4657, 0., 0., 0., 0.,
          1837.90967, 2962.95776, 2299.62451, 205.197693, 0., 95.4148865,
          0., 0., 359.76532, 0., 0., 1671.42505, 1895.39197, 935.479553,
          804.061646, 753.160034, 2266.68799, 1316.03223, 0., 0.,
          5105.08984, 2224.55249, 4265.20752, 4653.39551, 1397.698, 0.,
          1165.17151, 0., 6030.72607, 4197.31396, 749.0401, 2160.72583,
          3784.70361, 760.452515, 334.212494, 2586.22974, 812.009827,
          609.777039, 1042.93042, 2153.65161, 2699.07422, 1299.26794,
          1281.34851, 795.181763, 2011.78027, 268.923767, 1394.89001,
          1450.62268, 1823.70654, 4883.81104, 2825.63696, 3771.93994,
          1825.44299, 0., 251.765762, 1504.36084 ]
      - [ 4891.46338, 4039.50122, 1442.77661, 928.040588, 0., 0., 0., 0.,
          0., 439.829498, 0., 0., 0., 0., 194.270325, 3761.07764,
          2274.30566, 110.923393, 0., 0., 305.368622, 116.51609,
          330.151489, 1137.12512, 688.600037, 234.546371, 0., 141.795624,
          1749.93689, 1647.75903, 1040.91895, 7906.50391, 0., 0., 0.,
          68.9492569, 912.134277, 1481.46997, 1952.27905, 10464.8057,
          466.921173, 0., 0., 0., 265.699066, 667.216797, 0., 0.,
          1404.81274, 358.022339, 312.166626, 356.252716, 0., 0.,
          223.738129, 5328.50488, 5161.02734, 1450.39941, 1360.5686,
          2447.1167, 90., 0., 419.447266, 429.516022 ]
      - [ 528.478333, 7209.24707, 5591.31104, 1887.24072, 1081.78601,
          780.371704, 19.7989902, 0., 0., 4409.86475, 2270.22559, 0., 0.,
          0., 0., 0., 1988.22388, 1.41421354, 0., 2183.09399, 994.361084,
          1230.0592, 1567.75952, 0., 2040.51587, 2289.58301, 96.332756,
          0., 3765.2002, 6202.92041, 4133.61768, 1565.54163, 1819.24316,
          997.400391, 1637.00916, 1425.35474, 1287.15955, 1773.83923,
          2984.53809, 7330.81592, 12., 0., 1540.21497, 59.4810905,
          105.990562, 758.221619, 2780.0498, 904.682251, 3646.0166,
          2074.63892, 1565.43994, 1429.01282, 0., 0., 28.8444099,
          3530.67163, 1947.11206, 6124.35547, 1574.7699, 2842.70361,
          2866.21729, 0., 0., 380.189423 ]
      - [ 3163.30127, 2124.91333, 1543.64575, 3587.18433, 1815.20691, 0.,
          0., 0., 2523.52832, 1665.27466, 1210.61023, 1220.5592,
          1847.50513, 0., 558.883545, 3432.84326, 2350.15991, 959.012512,
          477.428528, 2230.36108, 2916.28369, 2276.54858, 867.28656,
          755.584106, 581.520203, 585.85321, 389.307068, 0., 7323.40674,
          1988.56396, 2242.15942, 982.549316, 1774.9436, 0., 0., 0.,
          4029.59058, 3754.14893, 6892.63477, 1811.39099, 1731.71094,
          1.41421354, 0., 0., 1756.92847, 3043.98218, 1497.46484,
          1786.26123, 2417.88477, 1606.95789, 2647.2854, 1491.86353, 0.,
          0., 0., 68.0294037, 7254.50049, 3305.76855, 2732.62622,
          5489.71631, 0., 0., 0., 2633.83862 ]
      - [ 4949.86621, 4071.31616, 4413.86182, 0., 0., 0., 0., 0.,
          4370.64941, 784.967041, 0., 0., 0., 0., 0., 488.447113,
          1570.32666, 0., 0., 0., 412.32663, 822.976318, 1408.8363,
          1471.94836, 1540.44507, 0., 0., 45.5411911, 68.3520279,
          3174.57861, 5310.96289, 3947.41113, 1307.77881, 0., 371.71225,
          1601.12085, 1601.37952, 1810.76367, 2334.55957, 4698.90723,
          2981.41992, 354.066772, 476.030945, 631.585327, 937.837524, 0.,
          1167.75403, 2025.18237, 2661.62256, 1153.04382, 1110.01465,
          1118.2428, 473.026428, 0., 87.2353134, 1671.91602, 6984.37988,
          1678.22546, 1850.12085, 1651.47986, 2039.54138, 0., 0., 0. ]
      - [ 518.94989, 13673.4775, 1758.16101, 1881.3584, 0., 0., 0., 0.,
          0., 5177.51025, 1475.12891, 0., 0., 49.1934967, 40., 0.,
          4733.16699, 90.7854614, 0., 0., 3409.4834, 2464.91577,
          872.378357, 662.398315, 2365.52588, 3180.77661, 0., 0.,
          5276.32031, 3956.03027, 3126.80103, 2392.04736, 0., 0., 0., 0.,
          1873.57324, 1722.97009, 14196.3105, 0., 0., 0., 64.0312424,
          1902.01855, 48.6621017, 1447.37061, 3727.76416, 794.24176,
          499.315521, 1262.58215, 919.373901, 2921.89063, 1820.42432, 0.,
          297.778198, 4897.19287, 2234.09155, 3108.17505, 2351.56421,
          6852.00977, 0., 0., 62.3883362, 5629.26611 ]
      - [ 2771.40161, 1855.07532, 4010.00562, 3172.39648, 1626.84338, 0.,
          0., 0., 1341.6416, 1742.30762, 1527.33936, 2031.68176,
          774.764954, 803.85321, 442.574249, 0., 380.188629, 120.663086,
          0., 1624.68567, 2991.75464, 1571.58655, 736.092407, 2271.01807,
          0., 11.3137083, 94.6678391, 1623.55286, 5460.49512, 1707.91821,
          1558.42249, 4168.51465, 0., 0., 0., 0., 5100.646, 7936.2915,
          1371.37231, 594.516602, 245.589081, 0., 0., 0., 4294.31934,
          4024.25977, 0., 339.106323, 0., 706.508301, 996.287842,
          6232.24316, 0., 0., 0., 0., 1661.5603, 1815.90247, 5507.9834,
          6106.61084, 40., 0., 172.286697, 1585.66724 ]
      - [ 2254.4021, 6370.73779, 2693.98682, 747.572083, 0., 0., 0., 0.,
          1564.8429, 2058.07422, 1542.12463, 556.596802, 666.432312,
          441.90097, 231.607422, 0., 2996.03857, 42.1016045, 0.,
          1444.16882, 1915.99866, 680.617371, 847.951172, 1767.86499,
          1814.85645, 161.919464, 87.6584244, 1077.6106, 2021.12671,
          2972.44019, 1823.21875, 1654.06494, 0., 185.396866, 0.,
          971.428894, 2547.6001, 3922.0957, 2124.48633, 3207.4585,
          5.09901953, 534.138794, 1511.14343, 0., 1159.27002, 2268.39722,
          1209.5979, 845.659485, 2115.96655, 2017.56775, 2781.34473,
          704.251404, 22., 100.767059, 0., 1276.7926, 2783.84595,
          3966.81982, 4516.72021, 1485.44629, 0., 0., 0., 1292.15503 ]
      - [ 7219.85791, 2929.19263, 2623.91602, 863.366333, 3789.79053,
          79.9249649, 0., 0., 2199.79272, 1481.37183, 464.75473, 0.,
          2704.62329, 1159.23438, 0., 0., 3152.54102, 0., 0., 0.,
          2491.68433, 1117.60486, 3286.72241, 1693.90906, 3228.23511, 0.,
          0., 0., 5409.35059, 2832.2041, 2888.74243, 4525.71875, 0., 0.,
          97.948967, 4519.33643, 1835.07129, 4443.62012, 3908.72729,
          3315.37842, 2549.33228, 2012.16174, 1280.53271, 608.126648,
          743.732483, 3436.52954, 2058.25122, 2314.72461, 1603.82251,
          2746.43774, 3340.04541, 5205.75635, 6., 0., 0., 1253.06848,
          1429.38599, 5426.98096, 4786.65137, 7007.94385, 380., 0.,
          7.07106781, 1625.08496 ]
      - [ 8206.73047, 6010.85889, 980.135376, 441.454407, 28., 0.,
          19.7989902, 248.084656, 2674.11328, 0., 45.2769241, 0., 0., 0.,
          0., 0., 5684.18506, 0., 57.9827576, 47.434166, 0., 847.138916,
          1128.14709, 1851.7522, 2955.7981, 0., 0., 450.234375,
          3437.67529, 2197.61133, 1808.10107, 3722.97852, 166.433167, 0.,
          0., 0., 1898.84888, 2650.57568, 6970.65283, 3765.00171,
          1819.92712, 1590.04028, 583.000854, 585.431458, 431.335144,
          233.383804, 2129.30786, 2137.47217, 3156.23999, 1327.17102,
          1275.42114, 852.502197, 1543.80786, 0., 0., 2651.90771,
          7324.87207, 552.166077, 2532.17432, 5532.79443, 433.00116, 0.,
          0., 1505.88269 ]
      - [ 3964.2605, 7766.83838, 0., 0., 0., 0., 0., 0., 1029.00842, 0.,
          0., 0., 0., 0., 0., 221.531036, 4777.38672, 1.41421354, 0., 0.,
          0., 1478.64294, 574.421448, 590.716492, 1378.89502, 1634.87927,
          887.298523, 0., 1580.37781, 2419.92773, 1981.54248, 2926.6311,
          0., 946.446533, 1562.49634, 0., 1588.97009, 727.377319,
          5695.16943, 3097.52026, 3526.3479, 776.865417, 1047.0896, 0.,
          0., 518.808228, 661.508911, 427.338287, 1351.28955, 1624.80371,
          0., 759.876282, 1517.50122, 0., 372.209564, 3408.01855,
          5726.12646, 2085.146, 2738.17358, 2410.75586, 1599.6145,
          160.312195, 633.618164, 3671.44482 ]
      - [ 2025.85608, 5115.42285, 4114.0498, 1969.02698, 0., 206.813919,
          1534.21606, 1784.03613, 195.576065, 1650.23108, 1411.87891, 0.,
          0., 0., 0., 3337.23022, 3897.77832, 0., 0., 0., 800.384888,
          1120.30811, 856.851196, 3496.75635, 443.935394, 3901.92017, 0.,
          0., 1700.70093, 4912.81055, 4440.0415, 3840.91504, 1186.9314,
          0., 0., 1974.70728, 1999.82898, 5716.47803, 2618.33862,
          5533.49463, 4., 2.82842708, 729.859131, 3420.94019, 952.631104,
          1068.53149, 0., 3395.22388, 5048.88037, 2779.09717, 1198.87671,
          831.534729, 1860.72473, 0., 132.37825, 12.1655254, 7095.93896,
          6616.03711, 2503.37964, 1797.59436, 1847.70313, 0., 0., 0. ]
      - [ 4627.20068, 3269.77051, 972.773438, 1268.13745, 158.398239, 0.,
          547.424866, 856.002319, 3571.7478, 485.571838, 0., 0., 0., 0.,
          721.476257, 1033.65918, 1783.89392, 0., 0., 75.9605179, 0., 0.,
          2066.94482, 3002.30444, 0., 0., 0., 0., 0., 3183.48706,
          3897.10791, 3184.21631, 0., 0., 0., 85.2877502, 1304.51758,
          1471.54272, 4928.65723, 4597.16211, 414.004822, 772.297241,
          48.414875, 240.333099, 0., 918.812805, 1779.35889, 4279.92285,
          1405.19238, 1697.20947, 1256.0603, 438.03653, 1425.83154,
          382.800201, 441.921387, 525.44165, 4400.42676, 4175.35156,
          1534.92383, 1219.65759, 1887.24841, 0., 0., 873.265259 ]
      - [ 3926.55615, 4200.81836, 3815.44507, 2033.76233, 2986.9458,
          871.027893, 0., 339.320862, 731.3125, 857.84845, 1748.26465,
          5597.10938, 0., 0., 0., 0., 3459.35376, 24.0416298, 8.60232544,
          0., 4216.64063, 2440.73682, 1574.88098, 1647.00879, 1701.40442,
          46.043457, 0., 1915.79346, 4654.57813, 4982.39453, 2771.35522,
          1812.15479, 0., 0., 0., 0., 7319.36914, 5586.32422, 3147.48413,
          1557.62109, 0., 0., 0., 1705.01831, 2462.03198, 3879.6377,
          1596.15356, 0., 1585.37256, 658.764343, 905.920532, 6788.60107,
          643.062988, 0., 0., 1747.14905, 2239.06763, 1250.29907,
          6882.98242, 7104.52344, 176.815353, 0., 169.067291, 1704.73523 ]
      - [ 3465.41553, 1907.19116, 9618.36426, 1713.81543, 0., 0., 0., 0.,
          0., 1462.59497, 4323.10352, 2654.09253, 0., 64.4980621, 0., 0.,
          1370.38086, 16.5529461, 70.7248154, 0., 3705.79053, 1814.38354,
          1775.3291, 771.569092, 2443.26025, 166.076706, 0., 0.,
          4617.84961, 4071.41138, 3157.05786, 3358.4353, 289.389008,
          92.314682, 199.529449, 3652.21045, 339.70575, 2469.05688,
          9514.84277, 1745.75183, 0., 42.4734955, 315.68338, 1686.46899,
          2361.3374, 2225.87012, 2082.22974, 956.280273, 1270.13745,
          2039.53784, 3000.6145, 3221.07959, 0., 23.3238068, 0.,
          948.741882, 4062.66406, 4874.2251, 3230.40039, 3187.5625,
          1642.77014, 69.3108902, 16.970562, 1777.27148 ]
      - [ 8758.54883, 1140.01025, 1399.77759, 753.330017, 1668.42737,
          2763.66211, 12.7279224, 305.722107, 4347.67041, 1619.46387,
          385.319031, 552.342285, 0., 618.820801, 812.916992, 422.733948,
          1869.56128, 0., 149.833237, 3508.0166, 935.128845, 505.751068,
          671.268738, 867.732666, 4923.58105, 205.138977, 48.3321838,
          3409.60718, 1748.2041, 4962.91357, 1387.23254, 4786.59424, 0.,
          595.227905, 142.894012, 4725.4585, 748.501038, 3469.73926,
          5007.81836, 1674.39148, 0., 175.413803, 1628.3335, 1923.80017,
          1034.46985, 1618.34766, 733.006165, 2519.05273, 1607.50818,
          3391.87207, 3341.95386, 2403.03125, 0., 0., 0., 82.2192154,
          3394.18896, 4533.99365, 6679.36914, 3635.89331, 0., 0., 0.,
          125.195847 ]
      - [ 2339.1377, 4558.27295, 4769.35547, 4217.67529, 297.919464, 0.,
          0., 0., 0., 189.171875, 2214.68555, 2879.06543, 445.764526, 0.,
          0., 282.109894, 3466.55884, 0., 0., 0., 1688.72998, 5180.12354,
          833.809448, 1496.92957, 81.0061722, 1740.97388, 520.842407, 0.,
          6193.23389, 5475.43945, 2583.54492, 834.112488, 0., 0., 0., 0.,
          5635.97412, 4441.33789, 6068.58936, 927.190552, 0., 0.,
          380.829315, 3763.91455, 1666.16174, 1634.16296, 2128.40479,
          274.029205, 2295.31348, 1091.01233, 2863.04346, 3297.51904,
          1674.37207, 0., 39.5979805, 3782.8999, 1798.27295, 4684.00928,
          4463.52246, 1921.45996, 3419.61963, 128.763351, 195.167175,
          1793.97058 ]
      - [ 4508.2959, 3553.16235, 4986.20654, 6008.18848, 0., 0., 0., 0.,
          925.406921, 2231.92432, 1925.7865, 1435.61389, 4072.37256,
          83.7670975, 0., 713.622375, 519.953857, 2.82842708, 447.60083,
          2175.04443, 2248.35425, 1696.9707, 2062.69824, 851.400879,
          2153.10693, 0., 0., 1975.30469, 2926.89697, 1944.38818,
          6582.95557, 4385.05615, 1489.74915, 0., 0., 0., 7858.65039,
          3773.71387, 3114.94849, 5334.41162, 0., 65.0538254, 685.25354,
          5621.09668, 2544.29346, 1189.03992, 679.332031, 584.754639, 0.,
          3679.00098, 8933.7627, 0., 12., 0., 0., 786.729736, 2749.48145,
          8176.28857, 6140.854, 3361.61084, 12., 0., 0., 0. ]
      - [ 1756.32825, 6094.00293, 2258.19434, 6270.85938, 0., 0., 0., 0.,
          0., 0., 749.348145, 1612.07751, 854.906189, 173.233948,
          85.4751434, 0., 1775.56372, 0., 282.028381, 371.06604,
          5596.76416, 842.117554, 1227.73389, 0., 828.620544, 1900.78381,
          395.213867, 3658.76025, 3298.69653, 6318.75391, 2711.25244,
          4112.78076, 0., 0., 191.049728, 3994.30981, 2123.31055,
          6926.94043, 2909.39844, 834.659424, 560.121399, 160.03125,
          2391.99365, 5753.97754, 1637.87695, 0., 572.915344, 0., 0.,
          3152.28198, 3873.97339, 4336.06543, 1867.09009, 0., 0.,
          2801.22607, 1649.99792, 3116.84546, 5050.7666, 9117.6377, 138.,
          0., 0., 80.3990021 ]
      - [ 1949.50586, 10248.9443, 3101.24072, 0., 0., 0., 0., 0., 0., 0.,
          1558.63147, 1612.41125, 0., 7.21110249, 0., 0., 1746.93884, 0.,
          0., 237.018982, 1739.94312, 1961.6001, 822.776611, 1953.42175,
          945.57605, 1874.99792, 2175.67285, 261.013397, 3400.3667,
          2001.9574, 3396.9248, 5799.96777, 0., 0., 0., 2057.04419,
          288.499573, 4712.98291, 8639.69238, 2033.35254, 0., 0.,
          11.4017544, 1757.2229, 3174.13647, 736.66272, 0., 0.,
          372.468597, 1403.44446, 1211.42932, 3852.77051, 626.514526, 0.,
          364.769135, 3964.6416, 1541.01587, 2739.30444, 5103.5293,
          3561.40088, 320.861328, 707.277405, 3233.33618, 1146.9519 ]
      - [ 643.909729, 8630.39648, 1228.18555, 1417.17163, 1660.2627,
          66.6483307, 0., 0., 300.745728, 793.908081, 0., 0., 1274.82898,
          2045.63452, 539.646545, 852.768494, 4720.56006, 514.678528, 0.,
          0., 548.284607, 896.330322, 699.755676, 1461.70605, 3119.78857,
          1464.4563, 0., 0., 2669.16675, 2364.0293, 3020.73779,
          3349.38965, 732.354187, 0., 0., 0., 216.453232, 5910.10596,
          5274.76367, 4136.78467, 0., 2253.34009, 0., 1439.74561,
          270.765594, 0., 611.138306, 2552.31836, 2374.65479, 2193.7915,
          2582.2666, 1546.24719, 0., 0., 69.6186676, 3385.0647,
          2487.75928, 6640.67334, 2651.38135, 4402.11084, 0., 149.164337,
          0., 1739.72034 ]
      - [ 788.217468, 7278.76563, 4678.88428, 4130.86572, 0., 0., 0., 0.,
          0., 1648.53027, 1504.37109, 2014.73572, 3836.17651, 247.693359,
          0., 0., 1682.41431, 0., 0., 3454.30542, 3723.51953, 841.628174,
          445.303284, 104.172935, 1458.21069, 1817.22363, 12.8062487,
          3485.52637, 3169.70459, 4007.02271, 1895.83118, 2973.06104, 0.,
          0., 0., 0., 3574.17188, 7552.23389, 3121.47266, 2314.14111, 0.,
          245.348724, 1407.06226, 2437.58936, 2302.94995, 2194.91333,
          947.421753, 499.417664, 1714.51978, 1624.21204, 2835.72949,
          4847.57373, 101.662422, 0., 0., 3519.36279, 879.346558,
          1460.90564, 3785.86084, 8379.39453, 10., 0., 2.82842708, 0. ]
      - [ 5362.57422, 3222.98975, 5195.31006, 2524.77979, 1843.54932, 0.,
          89.4986038, 0., 542.440796, 4851.28809, 610.972412, 1745.28223,
          1763.55811, 0., 0., 0., 0., 0., 0., 0., 5981.57129, 907.146057,
          549.068237, 1563.43823, 1880.37329, 0., 0., 2184.46704,
          4027.93286, 3686.35693, 3700.49219, 4680.81396, 1591.12646, 0.,
          72.4706802, 0., 6530.50293, 5854.44141, 2535.08838, 1492.12378,
          1612.08594, 0., 0., 76.5375748, 6709.05811, 2118.60596,
          734.292847, 0., 0., 3368.37695, 2475.79126, 5333.89258, 14.,
          0., 0., 294.064606, 2735.23389, 2852.81592, 6585.03857,
          6360.99023, 14., 0., 0., 0. ]
      - [ 7938.80664, 6011.13379, 2642.33545, 2880.92432, 0., 0., 0.,
          987.381592, 1538.66895, 130.782257, 1066.95862, 107.703293,
          600.070862, 0., 0., 50.1597443, 2041.97583, 5.83095169, 0., 0.,
          0., 479.597107, 2315.323, 734.829834, 0., 0., 0., 2020.76099,
          1747.5238, 3330.22729, 6646.75244, 3837.53491, 0., 0., 0.,
          6.3245554, 3688.01929, 3480.82349, 5231.80957, 7273.61279, 0.,
          0., 0., 0., 1482.51465, 1538.84497, 2127.42041, 0., 905.270142,
          652.138, 844.476685, 791.794189, 268., 1944.44897, 347.639587,
          2144.51367, 7744.88477, 2114.50513, 2232.74268, 5489.70801, 2.,
          0., 0., 2082.0625 ]
      - [ 3396.03198, 2227.53735, 3849.90356, 3127.31128, 3182.30933,
          411.526428, 0., 0., 1417.63916, 357.357361, 2604.82788,
          4229.12891, 0., 0., 0., 0., 543.166016, 1.41421354, 0., 0.,
          3465.44775, 1705.08997, 4482.91357, 0., 0., 0., 0., 0.,
          5236.17627, 3912.39331, 3142.79297, 4754.13867, 0., 0., 0.,
          226.737732, 9900.43652, 1938.89978, 2989.98682, 1765.18042, 0.,
          0., 0., 0., 7884.69629, 878.084595, 915.553406, 508.246582,
          868.371216, 1277.89661, 3748.57495, 1422.55249, 3576.51465, 0.,
          11.3137083, 101.202766, 3682.70874, 1578.84937, 5904.43555,
          6481.44873, 88., 0., 37.8581123, 827.13324 ]
      - [ 1121.0896, 3900.28027, 5978.89551, 2986.28784, 912.212891, 0.,
          0., 0., 0., 1206.3385, 2038.81067, 3995.84839, 0., 0.,
          118.152443, 0., 1296.82214, 0., 0., 168.011902, 3997.22876,
          1797.13489, 1254.43762, 660.928162, 1613.70886, 291.952911, 0.,
          13.9283886, 5850.4043, 2451.87598, 4336.625, 2208.97754, 0.,
          81.0061722, 0., 0., 8609.36621, 3566.73413, 1644.24402,
          2099.0603, 0., 15.5563488, 111.400177, 4468.14209, 2749.35229,
          1561.14307, 553.352356, 831.562378, 1453.01685, 895.399658,
          4811.54492, 2608.58813, 1617.2948, 0., 0., 1486.23804,
          1644.78296, 3412.12622, 5645.61621, 5674.54785, 44., 0., 0.,
          0. ]
      - [ 4301.99805, 2456.77295, 1418.82056, 1718.65112, 1338.73877, 0.,
          0., 0., 1380.66431, 3181.92773, 1235.46838, 379.051453, 0., 0.,
          147.492371, 3011.20264, 2671.58813, 110.308655, 0., 0.,
          149.083862, 875.885864, 2024.61731, 3954.22778, 701.445679, 0.,
          0., 0., 605.260254, 2574.9397, 3746.86914, 3599.88281,
          693.744934, 0., 0., 2676.85498, 2036.16748, 1235.21204,
          2688.69092, 2718.23926, 2557.80859, 123.181534, 1991.90137,
          1634.99194, 879.898071, 0., 1036.82361, 2503.77441, 3619.70703,
          2923.93262, 890.923279, 1200.90649, 531.0896, 0., 242.858002,
          562.421143, 5665.95703, 3547.73096, 2543.86963, 2299.86938, 0.,
          0., 0., 0. ]
      - [ 1349.92371, 9433.63965, 1274.50818, 1350.07593, 0., 0., 0., 0.,
          97.1287842, 8223.17773, 216.601013, 0., 38.052597, 0., 0., 0.,
          2427.67456, 128.631256, 0., 1189.17358, 2312.11157, 1268.14001,
          529.49585, 1113.75281, 1281.01563, 1528.03125, 0., 1103.70532,
          3619.53687, 1861.44434, 2946.70898, 1238.89526, 623.071777, 0.,
          440.783386, 214.219513, 645.63147, 2132.66577, 4507.15332,
          1846.32861, 0., 680.733521, 1465.89087, 0., 0., 0., 3286.98364,
          1616.87073, 1014.69818, 810.974182, 1288.38037, 4324.15381,
          231.303787, 0., 0., 0., 3301.26123, 758.107788, 3860.41064,
          4479.64746, 142.063629, 0., 0., 1180.72803 ]
      - [ 1320.03333, 1441.49683, 1024.73669, 1115.44092, 2725.34155,
          443.985748, 699.179749, 979.876099, 349.071014, 2.82842708, 0.,
          0., 2526.28052, 1010.03607, 650.265503, 0., 0., 0., 0., 0.,
          1176.19482, 1177.13232, 1933.6145, 1024.6001, 1105.67017, 0.,
          0., 0., 1188.25793, 4488.01123, 1565.75134, 3150.69092, 0., 0.,
          0., 0., 0., 4612.96387, 2939.00488, 1854.43701, 687.725342, 0.,
          0., 0., 886.637207, 1436.51196, 3596.25513, 901.46228,
          3073.02881, 641.882568, 436.80658, 1758.99084, 1392.0752, 0.,
          0., 422.031281, 2771.40259, 2772.07642, 1878.32056, 2796.48462,
          294.061218, 0., 0., 0. ]
      - [ 2955.15601, 6145.86719, 1984.31641, 1469.8606, 0., 0., 0., 0.,
          0., 0., 695.932495, 1536.43677, 1713.74329, 1534.10815,
          565.50824, 403.959808, 0., 1060.75342, 2191.86108, 3775.47388,
          937.026123, 0., 0., 0., 106.169678, 70.7106781, 2529.47754,
          3263.99634, 1382.87024, 941.724609, 1127.67908, 1252.32373,
          204.479828, 0., 401.907959, 771.472595, 438.894073, 1374.78455,
          454.970703, 8486.01953, 2552.52808, 0., 0., 324.197479, 0., 0.,
          566.137817, 832.809692, 346.413055, 641.09436, 317.279053,
          671.359802, 2208.59644, 1794.17261, 612.15509, 2660.13623,
          923.55835, 508.053894, 906.193665, 6560.46729, 688.168884, 0.,
          417.698456, 2050.48511 ]
      - [ 3788.42017, 1038.28333, 751.281494, 712.030273, 385.875,
          297.143799, 0., 0., 0., 0., 0., 0., 105.080925, 686.907227,
          193.242462, 2734.97437, 4904.00781, 5.88634968, 0., 0., 0., 0.,
          0., 0., 0., 0., 0., 0., 436.378265, 704.953918, 903.431763,
          6617.75293, 0., 0., 0., 551.284241, 1687.69202, 1320.36108,
          1233.77063, 2102.93042, 3119.67456, 822.519836, 629.017273, 0.,
          0., 0., 0., 0., 156.371353, 0., 0., 99.3277435, 321.809784,
          107.647766, 219.153305, 923.392883, 10788.3242, 546.319153,
          1486.18457, 0., 299.969452, 18.4390888, 317.100128, 0. ]
      - [ 2337.30713, 2101.99463, 5296.96826, 0., 0., 0., 0., 0., 0., 0.,
          0., 0., 1436.85632, 1722.89978, 1470.35901, 1359.15015,
          4287.37061, 4742.47266, 616.929016, 0., 0., 0., 0., 0., 0., 0.,
          0., 2341.29663, 1257.72668, 1467.18079, 673.303101, 1268.35938,
          0., 0., 1983.95959, 159.110031, 1228.1842, 253.775497,
          1537.3938, 1364.78027, 8937.1875, 731.41394, 344.815887, 0.,
          0., 0., 0., 0., 0., 0., 1778.32507, 1296.84229, 809.091003,
          1727.49316, 932.611877, 1399.97815, 4628.0874, 1085.43652,
          5398.0752, 1953.98389, 0., 0., 0., 0. ]
      - [ 1792.78931, 1936.79199, 2138.76147, 0., 0., 0., 0., 0., 0., 0.,
          0., 0., 0., 0., 31.2409992, 8137.9751, 9021.28711, 5.65685415,
          0., 0., 0., 0., 0., 0., 0., 0., 0., 0., 929.711426, 1426.8075,
          1151.58069, 1904.953, 0., 0., 42.9418221, 1923.0625,
          662.676758, 1288.95813, 847.075134, 10881.7842, 825.279724,
          135.897522, 0., 0., 0., 0., 131.034348, 242.825043, 812.274292,
          0., 0., 0., 0., 0., 1.41421354, 2114.52197, 7766.91504,
          3038.36646, 1757.91833, 1842.84485, 0., 0., 0., 262.922028 ]
      - [ 645.381592, 3406.57568, 8227.41992, 0., 0., 0., 0., 0., 0., 0.,
          7114.93359, 208.806137, 186.096756, 427.151031, 0., 571.545288,
          2556.51514, 760.718384, 886.465515, 2222.47461, 2117.90503,
          7.21110249, 0., 0., 0., 43.8406219, 917.530457, 207.171432,
          4441.49561, 2211.22974, 1280.00171, 43.56604, 4041.78979,
          433.866333, 1608.53357, 58.0344734, 1759.96558, 2491.5293,
          3047.29419, 1088.65527, 3161.23267, 3806.20459, 125.992065, 0.,
          751.656555, 601.079041, 451.154083, 785.83075, 3373.74365, 0.,
          592.466003, 0., 1390.46838, 1931.14514, 641.498962, 2113.08984,
          3771.02832, 900.397217, 1897.61548, 5190.63818, 0., 31.3049526,
          0., 859.574341 ]
      - [ 5315.68457, 630.719116, 265.646393, 18.4390888, 0., 0., 0., 0.,
          0., 0., 0., 0., 0., 0., 0., 1155.64624, 0., 0., 0., 0., 0., 0.,
          0., 0., 0., 0., 0., 0., 0., 417.373962, 787.365967, 7803.74268,
          1093.83118, 253.254807, 246.402115, 652.287903, 328.867767,
          808.333252, 959.609802, 2933.01147, 4194.51025, 15.5563488, 0.,
          0., 0., 0., 0., 0., 286.062927, 0., 127.906212, 0., 0., 0.,
          1330.50793, 2435.36475, 3815.65991, 1364.99097, 1046.83948,
          516.799744, 624.354675, 655.746887, 0., 0. ]
      - [ 10572.7158, 1677.14697, 1937.39075, 0., 0., 0., 0., 0., 0., 0.,
          0., 0., 0., 0., 0., 543.155579, 8112.45752, 4.2426405, 0., 0.,
          0., 0., 0., 0., 0., 0., 0., 0., 0., 1829.40137, 2520.88037,
          2340.05933, 0., 0., 0., 64.1248779, 1561.96838, 562.780334,
          1365.66125, 3925.77856, 7916.48193, 2.82842708, 0., 0., 0., 0.,
          0., 0., 0., 0., 0., 0., 0., 0., 0., 2033.40222, 10296.9111,
          1049.12305, 623.576416, 769.566101, 793.99231, 0., 0., 0. ]
      - [ 9411.81055, 1367.92273, 476.77179, 0., 0., 0., 0., 0., 0., 0.,
          0., 0., 0., 0., 0., 0., 3223.52051, 60.4904366, 0., 0., 0., 0.,
          59.4138031, 0., 360.471375, 280.071411, 0., 0., 0., 1168.46765,
          2643.15259, 4138.5835, 0., 177.859497, 746.125977, 783.242126,
          780.191101, 492.625031, 807.04895, 572.281372, 9661.46289,
          205.870026, 0., 0., 0., 0., 0., 0., 0., 0., 0., 0., 0.,
          2117.38477, 2031.01587, 2718.8645, 3394.89624, 810.631897,
          377.382843, 1326.62085, 1455.43616, 914.814331, 0., 0. ]
      - [ 1690.1853, 114.623001, 1210.85132, 628.752747, 94.0850677, 0.,
          0., 0., 0., 0., 0., 0., 0., 0., 54.5893745, 8844.49316,
          8538.36426, 18.6398144, 0., 0., 0., 0., 0., 0., 0., 0., 0., 0.,
          939.194824, 1586.28113, 855.204529, 1762.66614, 245.837341, 0.,
          0., 0., 639.061829, 1250.94482, 1479.19165, 9812.36133,
          192.194656, 0., 0., 0., 0., 0., 0., 212.249939, 0., 317.682251,
          0., 0., 0., 0., 4.2426405, 2960.74805, 7920.39063, 1583.67859,
          1508.24646, 951.509705, 0., 0., 0., 705.171753 ]
      - [ 3973.98511, 1632.82886, 543.061707, 1665.14771, 73.3484802, 0.,
          0., 0., 0., 0., 0., 0., 0., 0., 39.446167, 7871.63818,
          10106.8799, 45.1499329, 0., 0., 0., 0., 0., 0., 0., 0., 0., 0.,
          2783.51001, 435.670746, 991.51062, 2848.50366, 0., 0., 0., 0.,
          652.395569, 1360.23303, 2834.00342, 10188.9834, 250.293213,
          5.65685415, 0., 0., 0., 0., 0., 0., 0., 0., 0., 0., 0., 0.,
          5.65685415, 3196.34937, 9664.7627, 976.982422, 1077.29578,
          2030.1748, 0., 0., 0., 0. ]
      - [ 2468.47241, 5061.16016, 1459.81006, 0., 0., 0., 0., 0., 0., 0.,
          0., 0., 513.484192, 1503.87292, 1656.98621, 1433.92603,
          990.765503, 1898.19873, 2706.79834, 44.9221535, 0., 0., 0., 0.,
          0., 0., 0., 0., 2669.70605, 1544.44275, 1271.16638, 5705.35693,
          0., 0., 844.037903, 828.667908, 1011.13971, 548.210571,
          1011.70087, 4957.18408, 4807.43604, 880.066101, 0., 0., 0., 0.,
          0., 0., 0., 0., 0., 0., 0., 852.884521, 3573.97046, 5666.12012,
          698.563721, 1253.04761, 1741.12402, 2864.4812, 0., 0., 0., 0. ]
      - [ 2663.21436, 472.640686, 63.655323, 186.818161, 32., 74.6520386,
          47.6564178, 0., 38.0788651, 19.7989902, 35.3553391, 30.0665932,
          32., 22.8035088, 52.3259048, 1588.29736, 5583.50781,
          5.65685415, 0., 0., 0., 0., 0., 0., 0., 0., 0., 0., 0.,
          236.647415, 807.071411, 960.312988, 1955.10522, 0., 277.218323,
          0., 719.115234, 589.868164, 1244.99597, 3639.4021, 2692.4292,
          0., 0., 0., 0., 0., 0., 1047.92554, 1587.96643, 0., 0., 0., 0.,
          0., 0., 539.023193, 8192.90039, 639.232056, 259.896118,
          154.019485, 926.679871, 0., 167.720001, 304.657196 ]
      - [ 312.771088, 61.6304932, 526.174377, 223.943161, 323.289703,
          699.400757, 8.48528099, 0., 0., 0., 0., 0., 0., 92.0217361,
          531.35968, 3827.67651, 2087.64014, 2879.80908, 0., 0., 0., 0.,
          0., 0., 0., 0., 0., 1091.98901, 553.032166, 276.23349,
          587.64386, 327.673615, 433.610413, 0., 0., 0., 0., 409.060059,
          2109.48975, 2520.36182, 893.812805, 65.1920242, 0., 0., 0., 0.,
          266.593323, 389.625458, 1368.65015, 111.830231, 0., 0., 0., 0.,
          0., 927.193054, 4862.75, 1288.73694, 485.542847, 0., 0., 0.,
          0., 0. ]
      - [ 2., 8946.13672, 97.7445679, 0., 0., 0., 0., 0., 0., 0., 0., 0.,
          0., 309.428497, 0., 0., 85.6017761, 1485.28503, 2939.78198, 0.,
          0., 0., 0., 0., 0., 0., 3316.0918, 2093.95776, 768.487427,
          1549.19995, 586.156616, 3064.2522, 775.984558, 1374.33862,
          880.32843, 0., 1426.35193, 616.589355, 1015.89612, 3368.48779,
          5403.78711, 292.030518, 0., 0., 267.570557, 0., 0., 0.,
          698.369507, 126.063477, 0., 0., 0., 0., 123.869705, 6606.85303,
          3904.2146, 587.093567, 978.117859, 458.955322, 396.678711,
          982.183655, 2523.36206, 3043.23999 ]
